<SOS> 0.48691094 -0.007195903 -0.07021418 -0.25203443 -0.15613258 -0.29662782 -0.55038273 0.16320735 -0.22029427 -0.16623665 -0.27647913 -0.1836057 -0.21135193 -0.34233546 -0.21513915 0.4604842 0.39859214 -0.11193733 -1.1396251 -0.058355972 0.17725447 0.38076055 -0.24631768 -0.02442633 -0.06907057 0.10086167 -0.38713473 0.11358519 0.5519133 0.15263173 -0.14805976 0.19345903 -0.03350251 -0.26266292 -0.9045626 0.1306708 0.18615311 -0.2964602 -0.19592953 -0.1749566 -0.02144847 0.047916815 0.08579768 0.5004979 0.067699835 -0.24120858 0.23598048 0.6142183 0.409382 -0.4735557 0.22445993 -0.5074344 0.29794374 0.21552768 -0.028873663 -0.015494697 0.21737865 0.26791307 -0.3261378 0.2537818 -0.24349435 0.1762722 0.059518203 -0.27982038 0.021922067 0.045651678 0.22078511 -0.015747294 0.18923116 -0.04821489 0.02711013 0.3475644 -0.7121924 -0.054124974 -0.026341015 -0.16185562 0.29237744 0.28810394 -0.29046008 -0.2174716 0.25619507 0.42022914 -0.15527487 0.395846 -0.20916526 -0.1417142 0.15219828 -0.08878896 -0.010772146 -0.31076047 0.11225004 0.054065604 -0.24796832 -0.33710825 0.53783154 0.1991127 0.50997114 0.20814665 0.39233613 0.09519482
<EOS> 0.26084474 0.031235905 -0.025738887 -0.21996701 0.10848105 -0.21568634 -0.18721771 0.040671274 -0.04841973 0.13420776 -0.1142586 -0.1584495 -0.0056778975 -0.1562892 -0.052927863 0.18591549 0.08986913 -0.0035178224 -0.4642523 -0.097009465 0.0498728 0.042577315 -0.08872061 -0.018821627 -0.03332196 0.12280115 -0.07952382 0.08970949 0.2354825 -0.037441764 -0.0111152325 -0.0011368236 -0.0217031 0.07466185 -0.24339853 0.050544232 0.09690779 -0.09131142 -0.081325084 -0.07364782 -0.023270447 -0.029378425 -0.026392452 0.21020946 -0.07879243 -0.14919637 0.089061685 0.10349187 0.25478163 -0.071574755 0.12135362 -0.23900819 0.1499515 0.08179091 -0.04903778 0.12684843 0.056475297 0.055644613 -0.080380455 0.095122986 -0.08787377 -0.0100809205 0.05331913 -0.039439917 0.108649746 0.17290062 -0.03868069 0.01688757 0.017956624 -0.046828274 -0.03124675 0.05827096 -0.4044032 0.012322514 -0.04120897 -0.039912436 0.3145694 0.084526524 -0.17055117 -0.17202164 0.059140734 -0.020335218 -0.08672232 0.15675768 -0.116220556 -0.061983734 0.17978124 0.042845797 0.013675028 -0.16716339 0.08374536 -0.017195128 -0.016051054 -0.12900254 0.11337659 0.21032481 0.18913904 0.11508296 0.19429801 -0.0809327
XNET -0.009019492 -0.026700862 -0.0639068 -0.12993369 0.15612322 -0.18397306 -0.04828879 -0.029106652 -0.028287958 0.09503741 -0.037427083 -0.1551405 -0.006969589 0.101778634 -0.0151538225 -0.016675783 0.06745729 -0.14649259 -0.45754996 0.040339235 0.018548237 0.0069475365 -0.021576129 -0.073624164 0.14381792 -0.22133966 -0.0027976346 -0.032197777 0.15036249 -0.01992511 -0.10788326 0.027235933 -0.002407197 -0.011620539 -0.22499146 0.18169206 0.074253574 -0.07277843 -0.10804245 -0.09245158 -0.060001254 0.12564613 0.06805097 0.006237118 0.020204324 0.052699927 -0.17832462 0.17312671 0.21011929 0.05659364 0.054890487 -0.039807864 0.017200071 0.1480148 0.117960125 -0.012420616 -0.054662216 -0.06025665 -0.2925988 0.046865717 0.016503392 0.060064033 0.12118776 0.058855485 0.099000126 0.043688342 0.03437251 0.013085141 -0.0853923 -0.07764673 0.16435336 0.02249565 -0.20386122 0.0055264486 0.07251137 -0.22272652 0.27529976 0.17367196 -0.1636431 -0.13783862 0.012919181 0.18774325 -0.11981904 0.05935256 -0.054199394 -0.0398205 0.04011264 0.016503716 0.07032355 -0.06753441 0.0666297 -0.053855073 0.0041844132 -0.12728421 0.24701177 -0.024859874 0.23494858 -0.009814256 0.16430865 -0.1397217
ATRI -0.05109551 0.12480345 0.004222593 -0.21811628 0.09817178 0.13520367 -0.28388244 0.17121539 -0.102617666 -0.059872568 -0.059199158 0.0699053 -0.2050468 0.06766212 0.052613262 0.168434 0.14553092 -0.06722374 -0.098132126 0.032851826 0.014989733 0.079971045 -0.20365213 0.20439807 0.054031514 0.0080034435 -0.18968946 0.063632555 0.108950496 -0.030165778 0.0050851433 0.18453075 0.0070937546 0.06639309 -0.28650427 0.18152207 -0.092965595 0.11733236 -0.17590271 -0.06260958 -0.056779407 0.07357132 -0.056576833 0.07573972 0.07376671 0.044700734 0.13009329 0.05088663 0.2532151 -0.22285865 0.1608522 -0.16224264 0.20784412 -0.11402497 -0.051248726 0.022101482 0.12755674 -0.03522513 -0.08685766 -0.067166775 0.0125340335 -0.18781313 0.26339528 -0.06664077 -0.03952536 -0.028712602 0.0569795 0.008891768 0.06158996 -0.12978357 -0.08437591 0.04918236 -0.18988176 -0.024016025 -0.22244912 0.23951516 0.09727053 0.04441538 -0.14837646 0.06011375 0.047863282 0.20085625 -0.12002583 -0.01533885 -0.19197804 -0.0781087 0.2319034 -0.07033722 -0.07602161 0.084816135 0.042990614 0.14295816 -0.034995552 -0.13395634 0.27761033 0.1899827 0.14988638 -0.0034492293 0.2985169 0.17048585
SOHON 0.055863466 0.058145933 0.014032546 -0.090808384 0.035999894 -0.021042997 -0.15722723 0.104235195 -0.09326148 0.047654424 0.05554659 0.01766892 -0.15523045 -0.05559888 -0.058620572 0.08513052 0.22498806 -0.017883198 -0.31907225 -0.011312062 0.082255356 0.1449883 -0.15204291 0.015292834 0.08698365 -0.020597128 -0.114802904 0.054714493 0.18096106 0.087184 -0.029515084 0.10862746 0.0688986 -0.15178673 -0.22745709 0.032560833 -0.033610463 -0.105806954 -0.15845115 -0.0048297876 0.051607653 0.054369565 0.076779656 0.058966406 -0.00031784413 -0.012395755 -0.012815022 0.18150614 0.053116415 -0.1927506 0.110030085 -0.013532064 0.018486701 0.03483223 -0.10165632 -0.052303396 0.1119732 0.050867636 -0.1462894 -0.0437901 -0.006511417 -0.032124028 0.06268231 -0.116430834 0.037263595 -0.075281225 0.07673644 -0.037680086 -0.0052578654 -0.09773876 0.021856232 0.15957785 -0.13200143 -0.059883587 -0.079501025 -0.040254526 -0.05579151 0.0381124 -0.122135766 0.029635508 -0.029714668 0.14058661 -0.06879584 0.056936357 0.017896753 -0.051041666 0.073894404 -0.019238675 -0.015338863 0.03209428 0.02726971 0.08647535 -0.09390693 -0.12035782 0.24801993 0.06888304 0.2655922 0.11746781 0.08392479 0.01557232
PCSB 0.1223656 0.013315994 -0.024092961 -0.1151942 0.0758431 -0.010961568 -0.16386949 0.10081127 -0.11553671 -0.0004326687 -0.050947372 0.051854476 -0.1446754 0.0051777014 -0.18285403 0.06463077 0.18431506 -0.052952573 -0.3205227 0.092567064 0.036237374 0.15098017 -0.14921512 -0.015637504 0.1733231 -0.018366454 -0.12706353 0.04470782 0.16066578 0.0059589255 0.0062671546 0.058187243 -0.047954384 -0.17130962 -0.23999949 -0.037090097 -0.054809347 -0.0033507957 -0.19911958 -0.07575718 0.16906613 0.026258528 0.027725957 -0.13269775 -0.06581875 -0.045470394 -0.00436201 0.1902576 -0.081338294 -0.21348462 0.019768657 0.02832945 -0.0050778487 0.13931309 0.06359098 0.12814341 0.03954281 -0.038414765 -0.20784737 0.011613164 0.07455918 -0.009778568 0.12511031 -0.12048459 0.003112273 0.040972844 -0.03658466 -0.048238397 -0.05804831 -0.13280922 -0.051840268 0.16143309 -0.17330918 -0.03096096 -0.024388509 0.014113059 -0.024129122 0.07546476 -0.1374018 0.0029141286 -0.04385873 0.0026498006 -0.07556699 0.08144276 0.020257661 -0.03656655 0.0934334 0.045663226 -0.060526427 0.07279945 0.05223683 0.08997721 -0.02678668 -0.05974639 0.27281272 0.029915517 0.17128538 0.04515502 0.017859392 0.011140335
THBRU 0.15092991 -0.061107896 -0.018299263 -0.15294252 0.007387158 -0.10974536 -0.11276329 -0.03307357 -0.05877363 0.07939613 0.021951973 0.03953047 -0.026965648 -0.031561945 -0.09563924 0.009019701 0.20966421 -0.04036535 -0.27218035 -0.0025529047 0.08856665 0.13740692 -0.054022383 -0.028700637 0.14835165 0.04372083 -0.07959199 0.0044284454 0.11605059 0.020963944 -0.014601765 -0.04935194 0.09637784 -0.08680262 -0.1332823 0.10229436 0.02490348 -0.19499265 -0.03437223 0.051502835 0.06578325 0.06936708 -0.014403129 0.110115476 -0.07238193 -0.12664534 -0.05077195 0.16987571 0.10793643 -0.17859752 0.013128623 -0.03611503 -0.06188669 0.096205026 0.050545566 0.009307305 0.10753833 0.06592542 -0.10100469 -0.024198359 -0.05457283 0.013844239 0.09279876 -0.08543616 0.0016303718 0.029813612 0.092973486 0.014307994 0.077442765 -0.092900924 -0.03025328 0.093537875 -0.20739613 -0.13934371 -0.080011226 0.004297982 0.048425697 0.084893934 -0.16602318 -0.031910148 -0.05696113 0.11578534 -0.088700585 0.05962219 -0.07839323 -0.12753825 0.0587116 0.060583387 0.027635964 -0.029795025 0.048001997 0.02427249 0.0006745265 -0.06843747 0.091979675 -0.0067404136 0.1840367 0.10464747 0.21464029 -0.058632966
VTIQW 0.16065235 -0.041375145 0.039603196 -0.16037083 0.07601755 -0.08934473 -0.06566759 -0.027233958 -0.043979526 0.02099516 0.10899497 0.03956196 -0.10239658 -0.13124795 -0.08301175 0.031894814 0.26797453 -0.10467047 -0.32995462 0.044615496 0.09377675 0.17591979 -0.17115559 -0.084540576 0.21475449 0.0048960666 -0.18431254 -0.046427444 0.13823032 0.06147391 -0.042185232 -0.054151524 0.1504015 -0.19280949 -0.3069357 0.15224393 -0.00034940094 -0.21996737 -0.018886944 0.06774244 0.11809077 0.16427854 -0.11699991 0.18356612 -0.15697888 -0.11322858 -0.055677895 0.1942482 0.09955136 -0.20460624 0.0025309832 0.028935978 -0.2526123 0.057508368 -0.07807238 0.0017653424 0.08365805 -0.009834606 -0.09916317 -0.16064581 -0.083872825 -0.009696662 0.18170157 -0.046692207 0.01081705 0.11020515 0.12929812 -0.040997412 -0.020749385 -0.16233073 -0.073084764 0.0696913 -0.19858636 -0.07282249 -0.1013883 -0.04165347 -0.14019983 -0.055391993 -0.15772071 0.052768484 -0.22781366 0.010601955 -0.12967272 -0.0057063606 -0.07619748 -0.18448815 0.06727625 0.028685259 -0.0098120775 0.031075971 0.067876644 0.08502113 0.016140405 -0.07362976 0.077015504 -0.09087796 0.1902976 0.029736714 0.2581886 -0.06750587
AIMT 0.15577494 -0.04969679 0.016851198 -0.2995748 0.066258654 -0.022689534 -0.057042435 -0.043605518 -0.019800333 0.1566182 -0.09972553 -0.066223316 0.09829413 0.040661033 -0.042023554 0.0710904 0.16878444 -0.2202078 -0.34152997 0.12876636 0.014395952 0.13046373 -0.031087399 0.103968285 0.07959119 0.025368834 0.066284284 0.01700169 -0.035593078 -0.024371034 -0.031533584 0.11101651 -0.05854896 0.072752945 -0.0953933 0.060043037 0.11708831 0.018537179 0.016240807 0.010555474 -0.00029911066 -0.015063739 -0.03863893 0.21867043 0.08042539 -0.09726431 0.097451456 0.13806689 0.1280728 -0.0566812 -0.019962871 -0.24336034 0.18572001 -0.03411118 0.07363785 -0.08941762 0.07432996 0.05259836 -0.19749738 0.25415966 -0.037843667 -0.022907637 0.004043427 0.11445527 -0.024001598 0.06970043 -0.031822708 -0.07915111 0.029565277 -0.039187185 0.019917605 0.14830801 -0.16105011 -0.049006566 -0.01811635 -0.14148058 0.16732766 0.18620764 -0.020847576 -0.02984223 0.25106868 0.17517944 -0.011533686 0.07088602 -0.08522528 -0.17851835 0.07143946 0.023769112 0.13933271 -0.14681888 0.107184604 0.1007096 -0.11244643 -0.19714461 0.18969606 0.15494324 0.20013355 -0.0025443598 0.15892631 0.052864138
RMBL 0.21376428 -0.15095274 -0.010943955 -0.086303934 0.039972194 -0.3141305 -0.11305007 -0.052541208 -0.07247075 0.014688272 0.11059528 -0.18395446 -0.08098171 -0.05499105 -0.22219053 0.053607844 0.123744555 -0.020964555 -0.3301082 -0.060256526 0.064646214 0.11390651 0.0038691582 0.053173278 0.032497298 -0.08557915 -0.23498654 -0.10734553 0.30003607 0.141638 -0.03569791 0.113532975 0.007767457 -0.14210092 -0.27959496 0.13059331 0.08861599 -0.1604802 0.07911349 -0.05369215 0.1219485 0.027925134 -0.016345453 0.16724962 -0.13781703 -0.17983164 0.046383668 0.09423289 0.20409137 -0.19882041 -0.009672276 -0.128989 0.14028317 0.2008721 0.10020284 0.08868417 0.036078427 0.03267814 -0.1547876 -0.025356071 -0.011481923 0.19573817 0.03163792 0.06836159 0.011265742 0.024975395 0.29476586 0.044379722 0.091693394 0.01148747 -0.027862223 0.04580392 -0.16370112 -0.061411276 -0.0023746064 -0.060698785 0.001879558 0.0870511 0.012436703 -0.12254545 -0.00076836074 0.19258699 -0.0068236347 0.0926584 -0.123346776 -0.19501649 0.084706716 0.09931512 -0.090191 -0.1507762 -0.06230506 -0.017210377 -0.14798695 -0.12463785 -0.03145143 -0.12340591 0.17909624 0.0017894682 0.083068766 -0.017307935
PI 0.20854886 -0.19964522 0.0022134446 -0.23200609 0.10348913 -0.2973342 -0.35987926 0.09764769 -0.011162948 0.075244844 0.050919935 -0.18962231 -0.08701081 -0.03766132 -0.27613655 0.092435345 -0.11373672 -0.009330958 -0.34937477 0.035244465 0.035992127 -0.04672332 -0.1338671 -0.07707271 0.09421631 0.18570964 -0.060648717 0.09154787 0.21215698 0.032890454 0.040036343 0.1852715 -0.19139738 0.0233191 -0.24708575 -0.034623373 0.03050378 0.04487774 -0.15612106 -0.04797115 0.00032705907 -0.13147628 0.21728602 0.013665283 -0.007603883 -0.10963622 0.036139045 0.095333055 -0.06920182 -0.12602052 0.13614693 -0.2508705 0.18721499 0.16768925 0.15141986 -0.014264374 0.03835558 0.20671004 -0.024517708 0.076797314 0.05606323 0.02140353 0.073080964 0.15957732 0.0044997884 0.14777933 0.04878643 -0.08236001 0.20447677 0.1755481 -0.07121865 -0.05022874 -0.15985255 0.0081514325 0.17616823 0.02521981 -0.009636521 0.063253306 0.102915645 -0.17525119 0.18268052 -0.063880466 0.037866976 0.13347639 -0.008298833 -0.06276892 -0.023545485 -0.052867316 -0.1066037 -0.06483619 0.1293083 0.03883545 -0.19548693 -0.24620247 0.13414085 0.31519482 0.034865085 0.24136287 0.15546654 -0.056900185
NDAQ 0.08058197 0.1981739 0.12641016 -0.11794507 0.050396193 0.08841739 -0.18387066 0.17807871 -0.118783854 0.047404826 -0.119754955 0.035528556 -0.21414329 -0.03996093 -0.12862493 0.12840448 0.14875497 -0.13542043 -0.4507331 0.11195627 -0.017959764 0.19339614 -0.2581363 0.028845347 0.13837038 -0.03952904 -0.14187904 0.048927985 0.12564981 0.026119536 -0.026885258 0.097915314 -0.10456021 -0.022363378 -0.23155504 0.061306905 -0.107553296 0.18736483 -0.2946016 -0.16459206 0.107559375 -0.012924453 -0.01876325 -0.03199199 0.111419946 -0.062118616 0.10406764 0.21462084 -0.010407183 -0.257973 0.033533093 0.06314668 0.044818018 -0.09246269 -0.07134959 0.006655158 -0.0031973307 -0.06939192 -0.10266266 0.059045445 0.0119358 -0.03149193 0.08935147 0.039061908 0.05839887 0.0181876 -0.054075405 -0.094720244 -0.05892718 -0.043021526 -0.03517903 0.13511568 -0.008049209 0.059729137 0.008884014 -0.010143057 -0.057536207 0.016113399 -0.09275796 0.05493125 0.04685914 -0.06921772 -0.06557279 0.10162163 0.024730487 0.089220725 0.079582736 -0.012753155 -0.056464974 0.17308317 0.039887253 0.0084573785 0.03651742 -0.07205444 0.27750245 0.116413124 0.26511976 0.07064942 0.049252912 0.046603914
HX 0.23489839 -0.09048182 -0.07811378 -0.0887409 0.021248763 -0.116025686 -0.04797267 -0.021734565 -0.21994114 -0.051963553 0.0990233 0.07743473 -0.12863411 -0.095457494 -0.16309626 0.091385946 0.24733952 0.021431511 -0.31191507 -0.083632566 0.1462003 0.09052623 -0.12333317 0.11103791 0.14767623 0.042100154 -0.12559213 -0.082704194 0.092072874 0.06841451 -0.031383872 -0.11314699 0.054964002 -0.0868866 -0.18000594 0.21275489 0.03732913 -0.23553182 -0.015633244 -0.009481964 0.11319237 0.07018691 -0.08089652 0.08494365 -0.13141015 -0.14382681 -0.01728881 0.07238574 0.1467034 -0.18046091 0.011203045 0.091830045 0.019708186 0.07119865 0.0989667 0.01593658 0.18401197 0.14811128 -0.016809361 -0.012752488 -0.04790759 0.12860474 0.024863807 -0.08677344 -0.04420659 0.11808163 0.013862462 0.044998664 0.07193458 -0.078300424 -0.04893167 0.08250421 -0.18067619 -0.076453544 -0.011385657 -0.19279313 -0.079655305 0.0113195125 -0.17607057 -0.015406298 0.09281864 0.14179567 -0.14339682 0.1889609 -0.10755591 -0.231448 0.013503826 0.21189734 -0.057090655 -0.031188268 0.017564517 -0.033689596 -0.1536218 -0.1387389 -0.0054687387 0.04696766 0.18785606 0.2199436 0.21331182 -0.104533456
CDC 0.09378136 0.024941023 -0.053294845 -0.108577475 0.032229796 0.021491583 -0.11549943 0.13758682 -0.095254764 0.015675582 -0.055902246 -0.0401963 -0.03792921 -0.021619977 -0.0779505 0.11907653 0.12458157 -0.07797225 -0.3157384 0.07880773 0.03387506 0.13803288 -0.11912956 -0.024527524 0.06588865 0.0053222333 0.0056870827 0.13188553 0.15283036 0.021914592 -0.034939792 0.13617699 0.02330261 -0.07478236 -0.24751623 0.024744267 0.08523697 -0.018027449 -0.15221517 -0.14340387 0.0512386 0.074921355 -0.015038733 0.0061265263 0.04185856 -0.05960052 0.017349618 0.18123229 0.01769905 -0.1492603 0.06608647 -0.112475 0.11057307 0.06278843 0.047526266 -0.02059284 0.017370958 -0.028121565 -0.21942069 0.14324968 -0.04305598 -0.043291245 0.107516706 -0.06340176 -0.017977223 -0.0018517798 -0.018084982 -0.11754854 0.023407325 -0.08142434 -0.0075221183 0.08412487 -0.14601538 -0.041216847 0.008977584 0.0451778 0.0042337147 0.07114662 -0.080930546 0.037409727 0.099978514 0.047329456 -0.03671093 0.10281051 -0.043159004 -0.037831154 0.080437325 0.013431362 0.016230678 -0.017284418 0.07930157 -0.010315812 -0.01762711 -0.07928071 0.21990302 0.13236026 0.2010222 0.10481077 0.06597564 -0.00751517
CHRW 0.061060403 0.016224258 0.016302852 -0.1476806 0.123834014 -0.040740643 -0.06880168 -0.069203146 -0.075856216 0.0757825 -0.007869557 0.04913994 -0.115969926 0.056478906 -0.024967879 0.1553126 0.09320955 -0.15322763 -0.47622445 -0.0026160716 -0.00074475934 0.20230769 -0.21836926 -0.030005455 0.16236848 0.029288132 -0.13385604 -0.050053917 0.1681183 0.055172812 -0.030519672 0.16090882 -0.15426323 0.11987799 -0.30429074 -0.0682475 0.11107409 -0.027302919 -0.14561988 -0.17922936 0.007999181 0.11799376 -0.078966565 0.080960065 0.077127405 -0.092169195 0.028939707 0.1496932 0.0826374 -0.15330309 0.07507423 0.02719292 0.051069334 -0.06923442 0.026915502 0.03603195 -0.062105265 0.014416254 -0.13683431 0.04564849 0.00017388743 -0.076596774 0.060088042 0.1382935 -0.051270977 0.0141119575 -0.10386462 0.10699148 0.007970559 -0.15168239 0.028790899 0.1040673 -0.16441262 0.0009705214 0.028567236 0.048066393 0.006501877 -0.017454213 -0.046876404 -0.1259719 0.14607614 -0.0074212444 0.1028785 0.051835965 0.006718236 -0.088241905 -0.09784763 0.06955128 0.05685923 0.030616729 0.14265326 0.066670276 -0.0024156144 -0.10824273 0.21730901 0.035727914 0.12522501 0.01456829 0.06322909 -0.07644682
EKSO -0.0004090908 0.117422126 -0.03240458 -0.32050207 0.12038526 -0.0073327776 -0.18961011 -0.019693526 -0.043472126 0.14111112 -0.01038839 0.0032915792 -0.05578128 0.058013536 0.00072336907 0.19234371 0.23093008 -0.009602564 -0.43207282 -0.0024452591 0.0011026855 0.18988657 -0.27632564 0.018954579 0.18528177 0.03288537 -0.018231347 0.13444535 0.09101191 0.085821986 0.057589944 0.023574114 -0.0524423 0.048599638 -0.060587693 0.083147794 -0.029412234 -0.035853457 -0.068258636 -0.002080069 -0.010311428 0.10742403 -0.035146598 0.008644874 0.08442854 -0.13395664 0.041981857 0.17478998 0.16874097 -0.23638488 -0.027497154 -0.14798997 0.007661879 -0.007944714 0.13031669 0.13213775 0.10426299 -0.011294585 -0.07796931 0.087056994 -0.10709898 -0.104880854 0.10991831 -0.051079486 -0.030708527 0.05710268 -0.03255613 -0.031073494 0.08524735 -0.10111847 -0.105732486 0.1483544 -0.067952126 -0.114063665 0.026579337 -0.05071282 0.12247869 0.06422046 -0.13401634 0.09043011 0.17047173 0.05436128 -0.008726779 0.070987545 -0.16879684 -0.03881377 0.03761134 0.09767193 0.16505916 -0.09154179 -0.057565037 0.08777669 -0.05261204 -0.040926367 0.115881875 0.051182196 0.0127751045 0.076105215 0.012514246 -0.08913174
WSTG -0.024115598 -0.13509724 0.06431895 0.0014139471 0.05058373 1.902565e-05 -0.1289519 0.00080839475 -0.13155545 -0.06127974 -0.024408607 -0.07673323 -0.18677312 0.07906126 -0.014793218 0.18741642 0.22905804 -0.11310936 -0.30772313 0.02745868 -0.03100056 0.22042848 -0.29120955 0.002895151 0.09967503 -0.10735417 -0.11598408 0.14821242 0.08758472 -0.16079898 0.079582095 0.19399144 -0.016242148 -0.17849581 0.018067038 -0.08941871 -0.058025565 0.04752953 -0.27604568 -0.09171943 0.043608524 0.042326067 0.065938994 -0.056150686 0.13647003 -0.08431049 0.0058121304 0.24919392 0.10580497 -0.14418775 -0.12427239 -0.042850938 -0.0399815 -0.039442006 0.11441686 -0.037694555 0.008953123 0.055407103 0.03597829 -0.026734103 -0.011457836 -0.09584635 0.15916678 -0.18873262 -0.095071405 0.06711061 0.017788233 0.04138085 -0.07857912 0.02282765 0.052277014 0.21273325 -0.22153758 -0.013730348 -0.02185799 0.0491949 -0.061423127 0.09931972 -0.18936235 -0.074595444 -0.066783175 0.21035948 -0.006435287 0.0849509 -0.008992171 -0.1383517 -0.01517705 0.09862955 0.006135541 -0.06970506 -0.036468755 0.062341712 -0.03001079 -0.1761412 0.30534855 0.17302252 0.3853941 0.15134966 0.03248919 0.037142724
ASRV -0.07710885 -0.10688009 0.12009053 -0.30160046 0.25961867 0.10662752 -0.17209543 0.2525595 -0.2888148 0.1629915 0.19568047 0.0027680309 -0.091139026 0.05139382 -0.1539899 0.08419684 0.07174782 -0.10152327 -0.29612398 -0.019066425 0.19319816 0.09538171 -0.3624213 -0.042310342 0.07257443 -0.0672993 -0.12013149 0.15908341 0.2024403 -0.034022395 0.108025484 0.16172399 -0.14830767 -0.116939776 -0.18770498 -0.07188725 -0.119482875 0.25394857 -0.13113736 -0.07104006 0.14637649 0.15624811 0.13299204 -0.020561151 0.29789275 0.02704308 0.11340278 0.30185103 0.05156057 -0.34355694 0.0012460931 -0.0039368463 0.09482231 -0.0089305425 0.0013688519 -0.06654949 -0.12512998 0.18542363 -0.07821143 0.11173889 0.14144649 -0.07594083 0.15795654 0.10668736 -0.11962464 -0.131291 -0.008127275 -0.14733556 -0.060513508 0.089302726 -0.07058882 0.22217049 -0.09084891 -0.08240961 -0.006038278 -0.24112101 -0.011240401 -0.034468614 -0.14619718 0.14868096 0.08101826 0.07995668 0.017588018 0.020575745 0.12819688 0.027232436 0.153749 -0.01587799 -0.05212177 -0.16903158 0.088708125 0.052554175 -0.11324747 0.07306994 0.4033232 0.20903915 0.19619103 0.10046949 -0.03913629 0.18078429
IMVTU 0.24978712 -0.108214214 -0.0686548 -0.16121382 0.01245767 -0.23210391 -0.102049775 -0.094681524 -0.04071319 0.06071606 0.018601185 -0.013559759 -0.030533362 0.0023064392 -0.098928176 0.058610942 0.22965007 -0.037118543 -0.30193952 0.0070661115 0.10405759 0.16793141 -0.0948487 -0.015550862 0.1573954 0.08976389 -0.09745332 -0.069848575 0.09059169 0.0754672 -0.018216217 -0.043158557 0.12194694 -0.06562623 -0.18027999 0.14477117 0.1144054 -0.3109485 0.0069377646 0.116714224 -0.022168478 0.09604557 -0.038140137 0.1890208 -0.15387449 -0.14702742 -0.097816154 0.119120434 0.14506452 -0.18501 0.021949401 -0.08107563 -0.095069185 0.1722134 0.05794433 0.0032699283 0.10418329 0.08872723 -0.13277343 -0.08389539 -0.0696111 0.06592082 0.10525573 -0.06350344 0.005655667 0.074422136 0.13652687 0.03785726 0.072395556 -0.06684776 -0.0071339486 0.06529026 -0.27950326 -0.14250946 -0.0697906 -0.0033315623 0.060707077 0.0782501 -0.12666368 -0.028599618 -0.044120636 0.18045248 -0.096929945 0.11835892 -0.15531956 -0.18734726 0.055851925 0.05665928 -0.01686728 -0.09406457 0.020542625 0.0495356 -0.022608958 -0.07127018 0.04417123 -0.07514277 0.11710022 0.04684074 0.25913098 -0.08161976
CIZ 0.07164992 0.15530132 0.15626757 -0.0892451 0.088603236 0.09653541 -0.2355104 0.19808136 -0.1723715 0.10999342 -0.06537638 -0.030942569 -0.22254248 -0.010465712 -0.014536898 0.19774269 0.15699087 -0.12170528 -0.2330078 0.0753955 0.025996039 0.2909066 -0.32412598 0.035088163 0.12904464 -0.031259235 -0.09690898 0.08829915 0.18989505 0.009565808 0.1260897 0.051011037 -0.02967748 -0.042715807 -0.21225463 -0.07902577 -0.066925466 0.12713595 -0.32119557 -0.09725211 -0.017331328 0.034746468 0.0040871995 -0.0412617 0.10083827 -0.0835255 0.03414053 0.19527468 -0.0518769 -0.21069612 -0.10041604 -0.02170772 0.018178526 -0.10666265 0.0067048506 -0.019547433 0.10766439 -0.08839251 -0.17350696 -0.039924882 0.09829913 0.05273052 0.08454616 -0.10995377 0.033611175 -0.06578898 -0.12070139 -0.07974938 -0.0928426 -0.03378997 0.015046349 0.2208853 -0.09782897 -0.034205772 0.0067166276 -0.0863107 -0.014313598 0.024512578 -0.07277054 -0.031515274 -0.094414465 -0.05524495 -0.06628498 0.11700319 0.115053855 0.08179908 0.15042329 -0.050559912 0.012115933 0.18413374 0.106433295 -0.017315127 0.0059986855 -0.15717281 0.21643665 0.20703089 0.2975176 0.060276005 0.028168086 0.05520459
THRM 0.10278103 0.14535771 -0.07706025 -0.2443077 0.08283975 0.103155285 -0.12133341 0.14127757 -0.001158001 0.055786725 -0.20632054 -0.09293642 -0.094729066 0.041136965 -0.09788087 0.21445116 -0.021191379 -0.11961108 -0.41500366 0.07100287 0.16167264 0.07464371 -0.1543369 -0.069564454 0.16236435 -0.015472519 -0.03711078 0.1655533 0.16489182 0.010743252 -0.06639766 -0.016436346 -0.09429975 0.21394448 -0.18090616 -0.008890408 -0.08802099 0.22275738 -0.14838637 -0.17770788 -0.026609415 -0.076861985 0.007882055 0.06559862 0.04423459 0.0400601 0.05578915 0.30386794 0.07104257 -0.08685538 0.0594051 -0.31427032 0.17403433 -0.057724908 0.18838324 -0.038175322 0.10238046 -0.12993954 -0.2442773 0.22872724 -0.110508725 0.007571419 0.08987507 -0.011780744 0.029649263 -0.039858416 -0.22199897 -0.08269665 0.10319832 0.09813974 0.07080021 -0.07122308 -0.05819143 0.016227586 -0.00037202204 0.05036884 0.07822646 0.062181044 -0.025820194 -0.048720483 0.12589523 -0.06713462 -0.05040693 0.08067265 -0.0096983565 0.010286683 0.07954592 -0.14544739 0.08054874 0.11779225 0.03597269 0.05173544 -0.03703133 0.014493641 0.12468522 0.071283214 0.23982371 0.2056039 0.13342594 -0.043603323
IPKW 0.006052568 0.063520715 0.029886806 -0.12655799 0.080380514 0.03776257 -0.11746231 0.115812846 -0.09001192 0.024979616 -0.00093660806 -0.07108591 -0.120151 -0.02516769 -0.05985206 0.14483668 0.12634535 -0.120565936 -0.3234124 0.059182193 0.06204182 0.152823 -0.1769336 0.026579984 0.047148153 -0.05451179 -0.13201159 0.08175897 0.1942555 0.028866315 -0.015788987 0.15038322 -0.055734195 -0.027692014 -0.20062241 0.013340276 -0.0071468325 0.12976034 -0.18852812 -0.1655936 0.03568506 0.042603575 -0.0013795595 0.010997843 0.07555666 -0.06160803 0.045692362 0.2250815 0.006385186 -0.19593707 0.039757617 -0.09422899 0.11368021 -0.0038202987 0.036373224 -0.02094504 0.054196954 -0.021772865 -0.18685943 0.12291979 0.041705735 -0.024386536 0.07160967 -0.02606995 0.01359463 -0.026152251 -0.07401905 -0.07208831 -0.03223008 0.009399467 0.014053693 0.10757946 -0.11345211 -0.008950567 0.034994688 -0.025244432 0.004063235 0.026449956 -0.07897372 -0.016545398 0.048177227 0.048630692 -0.033788927 0.044445653 0.019274248 0.043535993 0.029372264 0.012856248 -0.0020348972 0.022130752 0.093077324 0.03210276 -0.042331126 -0.15470053 0.23892178 0.1479308 0.23189169 0.0749979 0.05245967 0.060968794
RIGL 0.17897183 0.02236508 0.04527435 -0.23138614 0.10661327 -0.0759373 0.014773805 -0.006624216 -0.060762886 0.012124685 -0.12093236 -0.11100196 -0.064852096 -0.072059214 0.06329801 0.24406691 -0.13673186 -0.110217445 -0.38776752 -0.06374964 -0.10537203 0.17122842 -0.09824331 0.00071009836 0.011066004 -0.07358665 -0.0033284046 0.032613616 0.21001759 -0.10363324 -0.11411111 0.13797955 0.07893022 0.06261628 -0.19002102 0.037220746 0.21250798 0.013343361 0.024161749 -0.07206735 -0.010594499 0.011300258 -0.104919575 0.032033626 0.09621679 -0.14070475 0.059471942 0.28836918 0.13167313 -0.092435986 0.04576211 -0.23121062 0.13396181 0.023258204 0.31451514 -0.15029241 -0.05155469 0.036359053 -0.3158396 0.23311582 -0.14208604 -0.003691347 0.21393651 -0.106570356 0.044967856 0.15599525 0.15424442 -0.000520337 -0.0503691 0.07695628 -0.030938454 -0.0041479548 -0.20115289 -0.078569934 0.13368557 -0.026487995 0.10929111 0.07880452 0.01131453 -0.047111496 0.26376966 0.17367932 0.1212682 0.07641661 -0.07585444 -0.006637511 0.07702211 -0.0178587 0.06533862 -0.0881679 0.064412475 -0.059242833 -0.0057967515 -0.058837656 0.0019018819 -0.10278391 0.07663207 0.033278346 0.14675292 0.11487201
BNGO 0.18475285 -0.13236973 -0.015088594 0.02823912 -0.13918363 -0.09043493 -0.040437024 -0.12728566 -0.05677454 0.17869662 -0.13152301 -0.020992436 0.007421084 -0.049722616 -0.122442104 -0.22456191 0.30146635 0.102491304 -0.32191584 -0.027412862 0.035904318 0.2277202 -0.029032813 -0.061057173 0.072510056 0.0515867 -0.1301919 -0.061639134 0.02512038 0.013040119 -0.07360927 0.04281277 0.092342526 -0.080663376 -0.08132842 0.19180709 0.10842199 -0.15492941 -0.14746566 -0.02889846 0.10400868 0.16933566 0.054993507 0.22671613 -0.06588031 -0.10464373 0.09336524 0.14353572 0.11728566 -0.18315262 0.17684366 -0.16794401 -0.18819319 0.19673699 -0.09532371 -0.028976375 0.19612147 -0.023021318 0.06423699 -0.09329855 -0.042885017 0.0022300943 0.23916703 -0.16252393 -0.0056777806 0.10830502 0.22931246 0.050772727 0.096127965 -0.24736176 0.0047404137 0.08721104 -0.43748292 -0.17063975 -0.21996969 0.030881327 0.015303732 0.17521955 -0.24592991 -0.09388142 -0.08807574 0.04719628 0.0007288179 0.059240498 -0.11610455 -0.15271842 -0.016799176 0.10844446 -0.061345723 0.018768081 0.1368582 0.012068816 0.091656275 -0.11322722 0.18244214 0.022602582 0.14910823 0.117829375 0.31042415 -0.14733344
TNXP 0.2055477 -0.002006642 -0.060253564 -0.27369615 0.021117989 -0.06548367 -0.12069853 -0.018816229 -0.120943956 0.09414649 -0.011326313 0.019074408 -0.045164816 -0.010495664 0.03309474 0.153051 0.10583974 -0.12316232 -0.48498634 0.028724216 0.039751258 0.15456551 -0.080153085 -0.02899633 0.16335554 0.08767222 -0.09020645 0.16036014 0.11045473 0.12176406 -0.05434177 0.003134635 -0.0028776093 0.0228796 -0.16193524 0.123534255 0.040910486 -0.117433436 0.010079638 0.024176544 0.11629798 0.115148 -0.09188645 -0.019825079 0.16592123 -0.0831156 0.036028896 0.13237458 0.0131247435 -0.16214181 0.0405826 -0.113172956 -0.017301233 0.1083447 0.2131566 0.0016988921 0.009653865 -0.015228561 -0.05047895 -0.10159565 -0.022034131 -0.012716878 -0.002652847 -0.13364333 -0.09298348 -0.05382556 0.14367443 0.027444793 0.2252376 0.05191888 -0.053514335 0.07455912 -0.2046439 -0.04792273 -0.061713733 -0.04205018 0.03859733 0.07983753 -0.28514338 0.013445854 0.0020649433 0.13776179 0.015019124 0.07082585 -0.014005215 -0.091127396 0.024782645 0.072176576 0.06922298 -0.04027101 -0.006969625 0.02360967 -0.021838801 -0.022661595 0.044186346 0.026049186 0.11267779 0.018670969 0.1691365 0.050245438
HUBG 0.034724776 -0.06628031 0.05710099 -0.14950788 -0.0034187094 -0.10976991 -0.24019842 -0.023773855 -0.10888815 -0.023903908 -0.072194435 -0.1694646 -0.26464787 -0.03382429 -0.08054603 0.18690139 0.25908664 -0.04179457 -0.4792651 -0.07444133 0.17534599 0.13600765 -0.027255077 -0.07772329 0.13766463 0.027361395 -0.16963755 0.026266765 0.14810158 -0.025825376 0.053249422 0.052842475 -0.16997546 0.0635297 -0.14445913 0.005043134 0.07764258 -0.04800068 -0.02551821 -0.10463988 0.10346503 0.05262452 0.049470004 -0.08538019 0.07032419 -0.048142817 0.023734355 0.11135972 0.014906951 -0.08861103 -0.07427827 -0.13662805 0.1326758 0.042007204 0.14137515 0.027271498 -0.020771695 -0.057945684 -0.09865845 0.08642643 -0.0072334413 0.03134741 -0.0516309 -0.059157323 -0.091306254 0.009874504 0.046059605 -0.028307743 0.05962465 0.015238142 0.07256735 0.04233039 -0.027761621 -0.011238634 0.12699927 -0.09166477 0.02455121 0.042900726 -0.00093420496 -0.036753483 0.30955094 0.07399576 0.07973091 0.10097467 -0.13555823 -0.10659261 -0.026333392 0.037929833 -0.05574638 -0.12579733 -0.09377494 -0.04392167 -0.025874227 -0.19006047 0.26180738 0.13018425 0.2038411 0.013446272 0.14518912 -0.015983952
PAACU 0.12995344 -0.12939835 -0.023523742 -0.18805352 0.026317542 -0.07049147 -0.12268641 -0.027399655 -0.15555209 0.036996536 0.119679935 0.029157914 -0.084332615 -0.044977136 -0.1381545 0.049530383 0.18286024 -0.033225868 -0.2407701 0.050347943 0.09714651 0.11689709 -0.09498652 -0.022661122 0.16422579 0.052709397 -0.14585032 -0.027476788 0.10219201 0.042775963 -0.013189048 -0.044592254 0.1471716 -0.14273165 -0.11899132 0.14006276 -0.04810181 -0.20686461 -0.056938533 0.12878577 0.05427387 0.1735096 -0.0850865 0.17143065 -0.0268817 -0.12651138 -0.038636737 0.20123467 0.12705895 -0.18620719 -0.046027787 0.053223524 -0.09825368 0.13761276 -0.0022905425 0.032945637 0.06413823 0.1192195 -0.05633265 -0.10835152 -0.04809693 0.0118085155 0.045492288 -0.02933448 -0.06887647 0.010031015 0.10643995 0.05119058 0.03568592 -0.11236712 -0.047330465 0.15875769 -0.22592007 -0.13822994 -0.124081396 -0.01816028 -0.054151457 0.031078998 -0.16472502 0.011847141 -0.16635492 0.13547829 -0.10078487 0.057917953 -0.056743547 -0.16694999 0.035824545 0.04756862 -0.008111225 0.017780777 0.021408033 0.05970354 -0.05562188 -0.09751498 0.12772566 -0.017903114 0.19293515 0.060627557 0.20662169 -0.08271273
RING -0.06244817 -0.051079176 0.026429653 -0.11441708 0.14706725 0.028441913 -0.11726131 0.00059902057 -0.09954185 0.062372517 0.13207887 0.06375745 -0.062579684 -0.03455576 0.023934998 0.21720229 0.037648153 -0.07646522 -0.27330396 -0.0072027724 0.04843882 0.21970993 -0.3401643 -0.01980061 0.024313228 0.069706716 -0.15426144 0.086613566 0.14895101 0.059433736 0.121175125 0.07982071 0.118898414 -0.049680267 -0.007511216 -0.0779692 -0.08629784 0.010965591 -0.11059605 0.11711926 0.028226024 0.13449599 -0.01717489 0.21779667 0.006748907 -0.04679266 0.015704107 0.29734147 0.09926056 -0.0727519 -0.10962091 -0.07786636 0.03873785 -0.0499517 0.16891928 -0.10526181 0.119155735 0.23623525 -0.20565495 0.02085168 -0.054958154 0.0026496155 0.25732943 -0.047825575 0.005088422 0.089313656 -0.16333796 0.047502533 -0.009244948 0.0815877 -0.100466184 0.23992105 0.0021318605 -0.026200812 0.06963742 -0.20038527 0.091661386 -0.018353458 -0.14440852 0.037019875 -0.09053388 0.26284322 -0.036886677 0.022998821 0.034090005 -0.06496387 0.0886481 -0.0878422 0.024201723 0.07727493 0.056743626 0.016092226 -0.20399462 -0.14690064 0.2532145 0.19409464 0.46164235 0.17221572 0.085413076 0.037967984
HGSH 0.15131824 0.017772658 0.08241162 -0.1187557 0.14783806 -0.019071387 -0.040126972 -0.015401655 0.0007366985 0.17746039 0.070128016 0.022775805 0.06419795 -0.086506724 -0.051838253 0.055748537 0.07954996 -0.060549174 -0.24471463 0.0031790263 -0.023782514 0.15906614 -0.088240825 0.088783935 0.021901427 -0.037007477 -0.01970994 0.09967244 0.24015452 0.008990076 -0.025490219 0.05729312 0.035964288 0.015996207 -0.27901083 0.025366478 -0.02184873 0.03861416 -0.11180559 0.036855582 0.11072724 0.12368978 0.020841302 -0.08436022 0.08159115 -0.21661901 0.14159276 0.22135839 -0.003488865 -0.1654565 0.05673423 -0.03380569 -0.057742763 0.054783616 -0.07188695 -0.13567008 0.06393162 0.00027377717 0.0014242177 0.03464743 0.17316832 -0.00073444896 0.10777836 -0.04347143 0.056309856 0.06579938 0.0562336 -0.091119125 -0.06716805 -0.0875154 0.029868035 0.12014531 -0.2933005 -0.12378232 -0.02071928 0.013680621 -0.10124836 0.23904596 -0.123934746 -0.07458536 0.050778463 -0.06270829 -0.21657935 0.1571611 -0.09008795 0.030207781 0.101268984 -0.020999227 0.085636646 -0.03557295 0.07972358 0.1347188 -0.025868917 -0.20600082 0.15776473 0.0768881 0.18967824 0.15140781 0.37033427 -0.024826085
JAN 0.09299544 -0.022704765 0.15042622 -0.24543451 0.06681842 -0.123949684 -0.009496602 -0.050204806 -0.027913352 0.12787025 -0.06646225 -0.051912434 -0.017845562 -0.10970618 -0.17401801 0.07876797 0.25099626 0.0052780635 -0.3132098 -0.007223015 0.08748294 0.17516983 -0.117058344 0.11037753 0.21711867 0.14036034 0.062348902 0.03604486 0.055596996 0.067158334 -0.086972654 -0.011982937 0.18345645 -0.06487856 -0.12071693 0.07725625 -0.05642792 -0.12404556 -0.018654136 -0.057988826 0.049427874 0.1259164 0.035598125 0.2567914 0.04114652 -0.117499076 -0.032984428 0.23695624 0.09111581 -0.11907427 0.14082928 -0.015107676 -0.17199443 0.13873899 0.08596257 -0.028209886 -0.029629348 -0.011244441 -0.11349769 0.019708415 -0.073748425 -0.052947033 0.16682582 -0.1403062 -0.102800205 0.084219 0.11459679 0.01788401 -0.07861559 -0.18206123 -0.044384893 0.09085422 -0.26245016 -0.085313074 -0.055433664 -0.039189104 0.017722702 0.054033097 -0.14924553 0.070031784 0.05529636 0.06142684 -0.062312085 0.04964643 0.0014334784 0.039073635 0.14005311 0.24809267 0.062337287 0.010937816 0.10461444 -0.041373704 0.071024284 -0.045722384 0.097795494 0.0055854623 0.2232091 0.044117082 0.22020675 0.01561675
RDUS -0.042751048 0.06665653 -0.1328868 -0.14484644 0.107919835 0.012323013 -0.10448914 0.066528015 0.121212535 -0.09001455 -0.14923972 -0.10603936 0.07016135 0.0012709986 -0.077019155 0.1933959 0.016859174 -0.1651619 -0.2968583 -0.020698851 0.13147765 0.0643348 -0.10299859 0.089386605 0.17367485 -0.12164512 -0.053593263 0.22733721 0.108137675 -0.031812083 0.13418218 0.17553169 -0.074085265 0.14904438 -0.16895562 -0.0034548708 0.09690828 0.10300653 0.07297481 -0.06070758 0.041279133 0.05865358 -0.031192215 -0.008053517 0.13149826 0.028832233 -0.08507966 0.11535599 0.1475042 -0.31031704 0.026584286 -0.20260333 0.047842834 -0.027986217 0.20632811 -0.09982703 0.051955104 0.15625334 -0.36311427 0.10983231 -0.08004599 -0.0045563187 0.20354913 0.027552258 0.08658301 0.0010941296 -0.018252637 -0.05404203 0.22915246 -0.03162002 -0.040194858 -0.04036394 -0.07931719 -0.10840147 0.11766722 -0.1160986 0.314341 0.07700574 -0.083488114 -0.019277304 0.21092534 0.06197872 -0.05115735 0.12590858 -0.25741866 -0.094661765 0.18912955 0.0120383445 0.09977214 -0.099269986 0.12881403 -0.032736983 -0.028451502 -0.17468078 0.12957613 -0.0634394 0.08424452 0.10056124 0.18868707 0.0813586
USWS 0.22861704 -0.040949486 -0.092686184 -0.19756871 0.0053148014 -0.20775801 -0.04295999 -0.10813547 0.08093628 0.1688584 -0.07781029 0.01008311 -0.05555246 0.080121264 -0.03869506 -0.04698367 0.20337111 0.09797483 -0.54041153 0.08076394 -0.061896063 0.17892845 0.006535758 -0.035715554 0.21918479 0.15611634 0.02172461 -0.055573903 0.10312562 -0.024146693 -0.099648245 -0.14989734 0.26890394 -0.038060017 -0.13987628 0.23344798 0.13186947 -0.36179915 0.12925412 0.033639394 0.00072917953 0.082215555 -0.09730291 0.18611456 -0.013420052 -0.25810263 -0.18100034 -0.019534824 0.055776905 -0.104745895 -0.117029026 -0.023190826 -0.34044927 0.2508706 0.104878716 -0.086310804 0.18429948 0.18172811 -0.13885522 -0.093813635 -0.12866572 -0.08170004 0.17648748 -0.086922735 -0.070182495 0.037998725 0.20936385 0.14188564 0.16041304 -0.048487388 0.09806156 -0.0035249942 -0.20391284 -0.21529247 -0.13295975 0.13047302 0.025936134 0.12527856 -0.108605884 -0.17487693 -0.11202938 0.15286992 -0.18405408 0.20405601 -0.12988737 -0.13187104 -0.082802474 -0.028982349 0.15912044 0.10092361 0.12591524 -0.12762226 0.0864833 -0.115465544 0.0671353 -0.24449793 0.119841866 0.12374037 0.50203097 -0.021888353
CZNC 0.071647 0.016258596 -0.008422711 -0.20925494 0.06342489 0.06601668 -0.22878899 0.16678163 -0.15494198 0.15983339 -0.063085586 0.044326738 -0.15003583 -0.04255429 -0.24099968 0.18898812 0.06597895 -0.09993499 -0.28041297 0.06401655 0.04092116 0.12374473 -0.20367259 -0.082693614 -0.021274574 -0.055087183 -0.12327374 -0.019602992 0.27120116 -0.049962927 -0.00067460316 0.110770136 -0.087654896 -0.018504338 -0.158521 -0.09360246 -0.098900676 0.085584514 -0.06539527 -0.043364342 0.11828813 0.044618 0.055703703 -0.07510681 0.09165016 -0.014687487 0.05568503 0.13848461 -0.103648014 -0.18861069 0.12732178 -0.04552423 -0.009620976 0.06478906 0.023604063 0.10482114 0.037566014 0.065569 -0.28197682 0.043516118 -0.08147738 -0.090210386 0.15518117 -0.036003474 -0.032167867 0.055155948 0.0038011284 -0.009233824 -0.059368018 -0.09118512 -0.041479647 0.1329469 -0.15310752 0.005731949 -0.024755584 0.029481059 0.03299838 0.008317775 -0.10798479 -0.10696905 0.01667027 -0.031570632 -0.046093453 0.12167738 0.01713844 -0.018780075 0.108971626 -0.0075294212 -0.001578885 0.15114501 0.103183486 -0.083932765 -0.03581759 0.0054155956 0.3271346 0.17880006 0.24894257 0.0128151635 0.08762384 -0.03577505
GOOG 0.054066643 0.019201042 -0.030030765 -0.11609418 -0.055293582 -0.076731466 -0.22355905 0.14454693 -0.09090399 -0.10468044 0.07708864 -0.060838006 -0.10857353 -0.088513404 -0.13807555 0.2833859 0.0012433353 -0.19068804 -0.14934625 0.03833506 0.14723688 0.10939169 -0.25241348 0.0231277 0.050883666 0.024970835 -0.04630293 0.045963705 0.07692334 0.0323129 0.057833813 0.121043585 -0.09560078 -0.014025521 -0.27357942 0.050861362 0.050072525 -0.06407115 -0.047964074 -0.039528247 -0.23935795 -0.092597105 0.053715024 0.17593955 0.13349868 -0.11652526 0.046048358 0.33039537 0.18598734 -0.100014776 0.0061098333 -0.21192998 0.24231644 -0.062794216 0.083830476 -0.11791683 0.13846265 0.025040276 -0.0579293 0.11736712 -0.1683277 0.0469229 0.07392177 0.018287854 -0.03550488 0.02346492 0.051029004 -0.121238425 0.184836 0.12100868 0.062317755 0.021537336 -0.13177004 0.026279802 0.122415595 -0.27156237 0.16489539 0.04131393 0.06688431 -0.17010306 0.15137947 0.17957759 0.013729277 0.021483153 -0.10635431 -0.0050339517 0.0027748286 -0.0027915875 0.0047892183 -0.0817024 0.05763009 0.12804236 -0.19991435 -0.22252122 0.1765414 0.20116197 0.2374062 0.080055706 0.0635472 0.04358516
TC 0.14950438 -0.18464409 -0.13546176 -0.040830374 -0.16928147 -0.28032342 0.008845001 -0.16394165 0.07679173 0.20310622 -0.051722847 0.061006747 0.15849526 -0.06301201 -0.28997374 -0.054971576 0.3865353 0.009539828 -0.27091753 -0.13463494 -0.016652122 0.3492985 -0.09093772 0.06765253 0.07551145 0.15056053 -0.20716947 -0.23259279 0.08314702 0.041178517 -0.13938887 -0.047576547 0.3410277 -0.28161925 -0.10983254 0.11377135 -0.31124333 -0.40250984 -0.02037872 0.28927195 -0.00758686 -0.030400045 0.042186417 0.06253496 -0.03454944 -0.2680944 -0.22790727 0.26985663 0.16540278 -0.1367145 0.0368702 0.0704532 -0.17253083 0.21574534 0.09223193 -0.2867853 0.1136669 0.1403575 -0.22237778 0.041607097 0.07084833 0.15293203 0.09726761 -0.37471852 0.12136722 -0.0074052247 0.5673092 -0.009346054 0.114368394 -0.00085283816 0.18100826 0.09503312 -0.3898693 -0.2531547 -0.026333082 0.07198514 0.08014794 0.16861792 -0.022835242 -0.2938434 -0.20675598 0.053300813 -0.09525957 0.02104195 -0.063131906 -0.1320972 0.015544761 0.021796128 0.14367653 0.13953185 -0.027406389 -0.04345987 0.092924334 -0.12966543 0.18594572 0.06794813 -0.010090888 0.08222728 0.47453153 -0.34478584
HCAP -0.022454321 -0.059206843 0.049254026 -0.055381406 0.22904803 0.043672897 -0.22984551 0.09391046 -0.16367848 0.06521157 0.1391731 -0.008739386 -0.124875665 -0.00943261 -0.11398875 0.24822012 0.18488716 -0.049096312 -0.33569238 0.028890759 0.0954734 0.2285071 -0.18151063 -0.08765458 0.11338519 -0.01964314 -0.26904458 0.05384642 0.15100312 -0.04429869 0.018115304 0.09324293 0.030972356 -0.024636598 -0.254223 0.110255815 -0.039497543 -0.06302089 -0.14550729 0.0524014 0.05080789 0.08994833 0.043236673 0.11832058 0.04857378 -0.08579389 -0.007247131 0.18966311 0.14470488 -0.18624839 0.16062737 -0.06699278 0.08476042 0.10823147 -0.048841763 -0.063046105 0.048882864 0.071400404 -0.05062562 -0.084281415 0.08857212 -0.023623843 0.17437214 -0.11618611 0.013414665 -0.04092076 0.0008883774 -0.033496495 -0.07500244 -0.08426439 -0.097154684 0.052023355 -0.10710859 0.06215982 -0.14646034 0.08268017 0.10768355 0.0472664 -0.10909913 0.08926403 -0.16919143 -0.04880102 -0.030541325 -0.13025652 0.029458642 -0.049941506 -0.0670645 -0.034831997 -0.03176532 -0.010655287 -0.029797403 0.014521699 -0.12850954 -0.19063559 0.32433257 0.12765253 0.20057444 0.045344915 -0.0060172323 0.04327595
WVVIP 0.16363353 -0.044939633 0.03637624 -0.17942528 0.14556505 -0.23762514 -0.17811592 -0.0071161804 -0.09604088 0.11640079 -0.13896103 -0.10113003 -0.003419021 0.0031263744 -0.12892908 0.027961068 0.16795783 -0.028233534 -0.45084748 -0.020378202 0.10479816 0.07500721 -0.20835724 -0.077198364 0.16811624 0.056928158 -0.10636173 0.006643328 0.18305375 0.060450308 -0.03604251 0.03633382 0.0016988717 -0.037728313 -0.2881295 0.057425976 0.09123517 0.011063546 -0.052582804 -0.034132805 0.012299178 0.17379336 0.08305689 0.15161824 -0.0018919051 -0.08587489 -0.05953035 0.15096018 0.112136625 -0.16343568 0.0889828 -0.070753925 0.007910376 0.013248515 -0.019287368 -0.014163867 0.014587875 -0.01324627 -0.09404682 -0.06998622 -0.009832049 -0.07456541 0.07619144 -0.05477163 -0.0027094462 0.16316076 0.12608056 0.058104947 0.09840382 -0.008964424 0.0638878 0.1185077 -0.25251108 -0.052797377 -0.061843455 -0.0935007 -0.045474585 -0.0043110508 -0.09770731 0.025324643 -0.051019333 -0.022373985 0.049740784 0.19054466 -0.061748758 -0.03045672 0.0027647961 0.044661168 0.0095903985 -0.0012663682 0.033032354 0.09584998 0.06327145 0.023908941 -0.008014534 -0.017761935 0.20472322 0.028696155 -0.0029465884 -0.06616657
VNQI -0.03777866 0.14467718 0.104018755 -0.13624017 0.15889347 0.11790455 -0.15121393 0.18838114 -0.08072677 -0.005156453 0.035508208 -0.07681609 -0.13198076 -0.061604187 -0.05926771 0.24087745 0.047061406 -0.104402475 -0.3161331 0.060437288 0.035567824 0.15849207 -0.3121607 0.02889427 0.056686338 -0.00946272 -0.066116296 0.100400776 0.16372737 0.058114275 -0.034448378 0.19379596 -0.03846279 0.008682118 -0.2761254 -0.010065168 -0.028877188 0.22581865 -0.26922444 -0.19355462 -0.019389385 0.056510188 0.0039354805 0.005562759 0.1931888 -0.004972985 0.06604805 0.22405916 0.019683775 -0.22147495 -0.052133653 -0.076813646 0.19513749 -0.10194821 0.044475365 -0.054849684 0.09799581 -0.058541194 -0.23220187 0.15567206 0.032285687 0.008701763 0.045007143 0.006203224 0.04339501 -0.03939943 -0.12318944 -0.16964193 -0.07776584 -0.00236965 0.032152675 0.11446271 -0.110355765 -0.0018879612 0.10729032 -0.08301584 0.032634337 -0.042440623 0.011425 0.006952027 0.16275102 0.03154338 0.02119027 0.022395609 0.0056716967 0.055357277 0.06858525 -0.04617556 -0.011168407 0.07709787 0.072583236 0.0729801 -0.078106366 -0.16442786 0.25760105 0.20959812 0.25911438 0.04103491 -0.059974454 0.016240936
KINS 0.020974549 -0.08182627 -0.073917 -0.17738886 0.088953786 0.05592582 -0.13814026 0.06655253 -0.13002679 0.04423647 0.13206117 -0.06144872 -0.14212455 -0.024624657 -0.026774736 0.15837175 0.097351916 -0.03954469 -0.27751076 0.15403003 0.0015757385 0.20450659 -0.0825592 0.10457387 0.07816661 0.046207 -0.04216941 0.10436916 0.16281451 0.017820818 0.061825775 0.0904815 -0.03037969 -0.10499534 -0.11935803 0.09053838 0.013204173 -0.046669018 -0.17574951 0.030832795 0.1295875 0.08343436 0.08195876 0.12334027 0.074020386 -0.08576421 0.055588663 0.29239255 0.03597715 -0.18859816 0.042821404 -0.1195013 -0.020246862 0.10061784 0.14664368 0.0009679729 0.18019733 -0.11598711 -0.16618393 0.11884857 0.069317244 -0.06405127 0.014233012 -0.01044819 0.00044387562 0.040306464 -0.05847673 -0.013430671 0.046193656 0.020245891 -0.010990017 0.023180699 -0.16972052 -0.08712324 0.0660108 0.012314539 -0.020354144 0.12402744 -0.025374489 -0.016253121 -0.07826321 -0.014120898 0.00543911 0.17245167 -0.003300425 -0.033196375 0.106326275 -0.032823972 0.025747024 -0.08837838 0.12282729 -0.034298625 -0.0703268 -0.03510137 0.12314639 0.13652907 0.22536565 0.113706596 0.15679301 -0.023929102
THCBU 0.13040899 -0.07582988 -0.01281566 -0.15454374 0.0044634286 -0.109346874 -0.15581706 -0.014575251 -0.0714135 0.08454097 0.051396977 0.012369072 -0.08490618 -0.015961576 -0.08662482 0.009897525 0.2574536 -0.025929296 -0.29070964 0.009449681 0.10475947 0.13458757 -0.108808644 -0.048070636 0.17019406 0.030306594 -0.11997899 -0.011650198 0.1090455 0.045329377 -0.021141946 -0.024250844 0.09895981 -0.11851617 -0.1706973 0.13042226 -0.004171851 -0.15853238 -0.105755284 0.03368092 0.054293294 0.08989025 0.0048063654 0.101886384 -0.06574645 -0.1350793 -0.046870902 0.21160132 0.102396704 -0.17399044 -0.0005503262 -0.041403346 -0.07669592 0.107054204 0.025842931 0.0083536 0.13004869 0.04566821 -0.10320545 -0.0514279 -0.035913847 0.0048325043 0.08217179 -0.08145687 0.02648696 0.026780438 0.078434244 -0.0030349668 0.05205715 -0.10165906 -0.028674234 0.09127737 -0.18795173 -0.11876101 -0.089536995 -0.04264205 -0.0117256455 0.055431817 -0.1802335 -0.0073160394 -0.07450853 0.109228835 -0.111702316 0.06310719 -0.058106687 -0.13923523 0.064729944 0.03266173 -0.010972861 0.006954557 0.028569572 0.0670043 0.0015413684 -0.09441458 0.12571007 0.010490438 0.21254522 0.123387605 0.22379999 -0.07169597
LXRX -0.1508797 -0.015973153 0.06045988 -0.17349316 0.016706623 -0.046444926 0.0041586207 -0.12023031 0.061113574 -0.08942414 0.03797091 -0.036635336 0.018872626 -0.057047926 -0.017397476 0.21697567 0.13999848 -0.058773186 -0.26846406 -0.067057066 0.09028016 0.07848282 -0.13166186 0.1941902 -0.009161197 0.17610838 -0.12029017 0.15529768 0.23952891 0.029526083 0.074700944 0.11864524 0.094744444 0.05257963 -0.23501363 0.12123973 0.1554315 -0.11294358 -0.11985211 0.019105773 0.009837265 0.094576284 -0.104698084 0.04798424 0.047357764 -0.05619185 0.063463025 0.19878855 0.23001944 -0.18452667 -0.032646004 -0.1396557 0.055981923 -3.2939693e-05 0.20006308 -0.09571496 0.020343395 0.11329696 -0.21690564 0.09471735 -0.025900621 -0.092332155 0.1262822 -0.13572611 0.053871427 0.2140367 0.07263233 -0.07788375 0.10824616 -0.062448863 -0.15360202 -0.032600585 -0.18045332 -0.17694649 -0.012454909 -0.11889718 0.15293203 0.054599322 -0.0955072 -0.03615806 0.11664562 0.19241181 0.04235725 0.03212187 -0.15702279 -0.1434229 0.020095203 0.06477049 0.15052502 -0.0038430295 0.056558415 0.035076015 -0.081254885 -0.23579568 -0.01508845 0.012910842 0.14561833 -0.01713443 0.26512915 0.1576001
NLOK 0.22990222 -0.10188795 -0.08766962 -0.065022975 -0.07828308 -0.21373938 -0.038628224 -0.09664383 0.05469674 0.10765977 0.038852014 -0.04745283 0.017247418 0.027723717 -0.14088096 -0.04595317 0.16720207 -0.07759227 -0.36130035 0.02979721 0.07434037 0.11418354 -0.038065836 -0.043420106 0.16973583 0.072161935 -0.11236605 -0.056601513 0.17887145 -0.019512542 -0.051446512 -0.08893526 0.15797625 -0.079240195 -0.17966543 0.16905461 0.12966663 -0.27402171 0.07427099 0.10075655 0.10601782 0.060397323 -0.064710446 0.22688465 -0.14306709 -0.17849857 -0.08761769 0.11633055 0.12664615 -0.11354437 0.05486138 -0.07233253 -0.1617056 0.15438908 0.09186401 0.021621192 0.15464248 0.09351754 -0.11106396 -0.03813447 -0.0855502 0.05073011 0.13355595 -0.0551623 0.047736254 -0.004540822 0.09878478 0.08908934 0.115674995 -0.12841457 -0.030411623 0.045608923 -0.26867145 -0.14742441 -0.08545821 0.010409317 0.07308738 0.07064743 -0.23794161 -0.092166536 -0.07446125 0.14138904 -0.113543205 0.048556093 -0.16833597 -0.20407239 0.02619568 0.02873662 0.03384237 -0.07921472 0.11050903 0.019094609 0.01015478 -0.10058841 0.033028305 -0.0901595 0.1783255 0.12389484 0.36368942 -0.110797144
PTEN 0.098707706 -0.004284021 0.03135611 -0.20882832 0.06935524 -0.052556816 -0.077049784 -0.029467849 0.064146906 0.11792126 -0.07754555 -0.021921767 -0.0066319257 -0.014981296 -0.13376102 0.10782984 0.039209172 -0.076267794 -0.427554 0.025038248 0.080640554 0.17045264 -0.107045 -0.07040823 0.12485877 0.12812883 0.10617781 0.027021198 0.04678112 0.029505514 -0.048459433 -0.090867266 0.07846344 0.12704128 -0.16869059 0.003505326 0.09652734 0.08619618 0.036395214 -0.0010656558 0.062643334 -0.043847326 -0.11742329 -0.018436693 -0.008001316 -0.2273713 -0.005232398 0.20425373 0.05936337 -0.08020403 0.1396505 -0.1532132 0.042538203 -0.006950858 0.15248512 -0.06560253 0.14876099 -0.10514066 -0.117499895 0.133695 -0.1453847 -0.07109571 0.1922144 -0.07389223 -0.00016652454 0.107907005 0.031599104 -0.12712745 0.12103148 -0.023852544 -0.046060454 0.08604404 -0.19915748 0.0020544163 0.010946312 0.092315555 0.046350148 0.16271402 -0.04172421 -0.07007957 0.14573626 -0.020630503 0.028874405 0.1222241 -0.07216024 0.023220675 0.044990662 -0.09654784 0.103991196 0.05276932 0.14910685 -0.045085855 -0.01655243 -0.17330788 0.029476 0.0030148395 0.19878775 0.124289066 0.31923568 -0.041419085
BEAT 0.27469042 0.05141391 0.032351863 -0.27040625 0.12569219 -0.11958491 -0.0528775 0.0017748806 0.013236478 -0.045464147 -0.11364266 -0.16043626 -0.077783436 0.027868735 -0.09048733 0.1471424 0.14230528 -0.28621528 -0.2723657 0.03476332 0.026724976 0.11670535 -0.08857708 0.00093906117 0.11808612 0.00517454 -0.19345759 0.015584187 0.12146852 0.11796948 -0.11021835 0.12111614 -0.11607813 0.06403999 -0.21297489 0.0900461 0.13666134 0.016991207 0.15151061 -0.073478654 -0.05086318 -0.07010729 0.031751946 0.077805236 -0.020332938 0.015148884 0.029040534 0.23050733 0.12011424 -0.04922273 0.09895535 -0.2517695 0.0024615077 0.022731997 0.26014143 -0.052494273 0.13087338 0.06553898 -0.16116537 0.124850385 0.078152165 0.08867791 0.1467178 -0.06524687 -0.02690336 0.035563707 0.023909414 0.070679076 0.20325394 0.09131385 -0.06681553 0.015117141 -0.17098932 -0.11653692 0.052236974 -0.055876277 0.086494215 0.12832892 -0.00292427 -0.08461272 0.19450492 0.0890743 0.07729065 0.02245277 -0.109916374 0.10603014 -0.06997024 -0.030564476 0.023212997 0.05604551 -0.016735608 -0.121742725 -0.07992923 -0.22106977 0.2003728 0.087112315 0.13940911 -0.14014551 0.043534067 0.08921588
QABA -0.089697786 0.27997172 0.10108746 0.050263774 0.029201318 0.17715943 -0.09973292 0.16612644 -0.028260464 0.025153022 -0.33712733 -0.0015708432 -0.24461204 -0.051470384 -0.19803141 0.1773083 -0.018925158 -0.17886116 -0.619956 0.045611586 -0.06848965 0.16968219 -0.15807413 0.1246778 -0.0719392 -0.2131804 -0.16728857 0.1246068 0.33683333 -0.1030252 -0.120335124 0.097841196 -0.2366519 0.029768048 -0.27605554 0.041437272 0.027075546 0.354895 -0.29436517 -0.3986769 0.27096605 0.02253838 0.07535232 -0.3190157 0.16964 0.019053072 0.1567344 0.112509035 -0.16912208 -0.094640166 0.27279842 0.00036984004 0.20620733 -0.09196355 0.042054527 0.014513197 -0.07802383 -0.21200733 -0.41206792 0.25204504 0.1763263 -0.09063589 0.062112916 -0.06847609 0.13311182 -0.060086723 -0.093518965 0.020558609 -0.18635975 -0.071899705 -0.035103064 -0.012716689 -0.04796641 0.22257616 0.20779261 0.26423752 0.052896764 0.13511449 -0.16822153 -0.09055631 0.15047474 -0.28337902 0.011177064 -0.0017896179 0.11473541 0.20348991 0.14834051 -0.04911429 0.016928768 0.14536364 0.24529657 -0.015503015 0.089360006 -0.10919536 0.43982622 0.2522308 0.19684325 0.057350233 0.11457613 0.051188037
AIA 0.077949286 0.027158499 -0.060699303 -0.25080007 0.009105853 0.050271563 -0.18584147 0.04865537 -0.012901436 0.05398896 -0.079888955 -0.058624778 -0.13379927 0.0011682074 -0.122856915 0.18173157 0.054208834 -0.20143206 -0.31242555 0.06816463 -0.030964866 0.15676121 -0.110434406 0.04606122 0.08718369 0.004870717 -0.18305607 0.07204217 0.049849767 0.017804218 0.023210356 0.18618941 -0.11438668 -0.07693489 -0.094836175 0.04306474 0.04051693 0.1703497 -0.1951411 -0.13339892 0.05585235 -0.030940214 0.020820947 0.081797235 0.035523646 -0.024820304 0.09586711 0.25027975 0.0285046 -0.063167565 0.012040967 -0.21129966 0.22818172 0.028377527 0.07501574 0.030229429 -0.008343792 -0.06941135 -0.071799316 0.20711336 0.02857936 -0.040456835 0.0055029355 0.10708622 0.03541515 0.07548348 -0.06550554 -0.033965655 0.017171364 -0.059948947 -0.021432562 0.15356684 -0.07611791 0.09312957 0.02372027 -0.10453357 0.03158699 0.11049398 -0.12465881 -0.014576827 0.18520772 -0.0062339804 -0.03236823 -0.02903509 -0.11757465 -0.024064513 0.040437665 -0.05561462 0.004192873 0.05211235 0.13691232 0.04765665 0.03579778 -0.13907667 0.31298968 0.09536034 0.23791948 0.13678257 0.08889849 0.06013128
TLRY 0.27500182 -0.05521439 -0.04935282 -0.17698951 -0.00042766484 -0.20053592 -0.17953266 -0.12339341 -0.06823787 0.17148107 0.019308379 -0.008364316 -0.1341845 0.05228424 -0.14694855 0.049297318 0.043872643 -0.023993405 -0.3592235 0.04709551 -0.090037316 0.21612968 -0.07437474 0.03103927 0.16191737 -0.004065231 -0.16050242 0.054447893 0.18323614 -0.056481134 0.008721991 -0.07066866 0.081200056 -0.21807614 -0.1515562 0.33837783 0.13692749 -0.2740826 -0.020336665 -0.013431083 -0.120117545 0.13876683 0.06841021 0.067697346 -0.19418758 -0.24984202 -0.018704847 0.048456904 -0.0053233146 -0.20806669 -0.038788926 -0.03360982 -0.18998012 0.097096995 -0.033740852 0.058638047 -0.054473225 0.12230964 -0.20543748 -0.048055567 -0.014451284 -0.063601695 0.083491005 -0.042454068 -0.06554521 -0.026266443 0.20297232 0.014735409 -0.08850659 -0.00069486466 -0.06772052 0.0017730258 -0.29638532 -0.033415403 -0.051462043 0.072099 -0.043813683 0.1649213 -0.21498327 -0.16263384 -0.104508825 0.113378994 -0.081631884 0.116222315 -0.09445865 -0.100991495 -0.0065532704 0.023990374 -0.11919957 -0.0811891 0.072925776 0.07131753 0.03093772 -0.012065141 0.0011322976 -0.0027033947 0.04534297 -0.039545637 0.34781387 0.024584616
WSC -0.0016957255 -0.061625984 0.008999728 0.041371834 -0.00055711396 -0.09412886 -0.07326602 0.07412913 -0.057501487 -0.07931673 -0.014351749 -0.0008663615 -0.042616356 -0.05714407 -0.055485185 0.07964812 0.2833228 -0.123114035 -0.3481357 0.11133927 -0.026875172 0.17758827 -0.14528847 0.050161593 0.15248415 0.05311588 -0.08190226 0.09507962 0.10662959 0.04351605 0.048054565 0.008655539 0.055390988 -0.25053233 -0.2106187 0.02382665 -0.05977362 -0.08134651 -0.16945556 -0.06833526 0.07270129 0.12905464 0.041947115 0.04867869 0.028872948 -0.1669774 -0.052204914 0.09455418 -0.054879468 -0.08931272 0.056686137 -0.083692126 0.070714906 0.12545827 0.006093766 0.041836027 0.04701858 0.042293377 -0.17395492 0.050926667 -0.044449683 -0.022517849 0.048651893 -0.03968034 -0.068016455 0.022369698 0.074108884 -0.075400226 0.051983338 -0.056471866 0.01034078 0.1285042 -0.2577558 -0.11130409 0.0055489237 -0.0063373893 -0.019769004 0.062071506 -0.10068881 -0.09828313 -0.20979774 0.09695287 -0.09981155 0.12472891 -0.052079048 -0.11532085 0.038840048 -0.023428632 0.09340695 0.057980154 0.11287894 0.09901394 0.036092106 -0.06628108 0.20557924 0.052310556 0.2717224 0.13542175 0.1617281 0.036771946
HMTV 0.025120823 -0.011222468 0.05208454 -0.06600347 0.17776613 0.10552513 -0.06972292 0.051501524 -0.07277698 0.032841634 0.055808328 0.07147487 -0.09699271 -0.04277195 -0.17786188 0.254722 0.16195047 -0.11962261 -0.31128404 0.029378723 -0.099304564 0.31476066 -0.17431523 0.09416347 0.023873115 -0.11778538 -0.19821276 0.09273694 0.15381402 -0.019574352 0.047006655 0.1038887 -0.034233227 -0.11333838 -0.304911 0.012502959 0.09745795 0.111135885 -0.2594795 -0.124525286 0.032698933 -0.008943819 -0.006933615 0.0515923 -0.0037695596 -0.083440416 0.063570604 0.25633222 -0.07266223 -0.18740667 0.077245645 -0.08627366 0.03210511 0.11771952 0.015544862 0.016170664 -0.0026348177 0.03937507 -0.18142842 0.059333432 0.036412843 0.013852656 0.14797431 0.0060983286 0.13858078 0.070799686 -0.08337837 0.0007293373 -0.1537186 -0.07688076 0.0032257133 0.0009119607 -0.18580736 -0.03218865 0.059419345 0.013347921 -0.04976898 -0.004643592 -0.047382534 -0.044841126 0.0059797917 0.009863868 -0.0047718566 -0.071144216 0.06072015 -0.11734838 0.11401289 0.07216248 -0.019181723 0.12008708 -0.00433078 -0.010659176 -0.109722234 -0.06786941 0.25278267 0.12170147 0.1674396 -0.021132477 0.021747194 0.123026565
LEGH 0.2803439 -0.14754234 -0.011590111 -0.058530018 0.021127045 -0.17788434 -0.11578042 -0.08460301 -0.039934233 0.17705975 0.10435204 0.11649494 -0.119715214 -0.078142054 -0.09179128 -0.032482587 0.36320007 -0.03806656 -0.30184448 0.00060240814 0.09915963 0.13499393 -0.03104511 -0.009123856 0.18196727 0.13498507 -0.12360897 -0.13279139 0.074778646 0.089229345 -0.040729392 -0.16393803 0.17740893 -0.27546498 -0.13641559 0.17858578 0.03647215 -0.38357648 -0.064004235 0.18558818 0.15633912 0.25755635 0.010944054 0.18727311 -0.2283988 -0.14335535 -0.2532359 0.15748547 0.12703504 -0.21208476 -0.04088795 0.05855733 -0.18607183 0.20065266 -0.046006702 0.114806525 0.13621053 0.06613832 -0.10628583 -0.060716078 -0.032739196 -0.0020132647 0.07584792 -0.15551983 0.043029413 0.03174601 0.23404852 0.06571193 0.15525915 -0.16203882 -0.08338236 0.14176185 -0.32783106 -0.22964206 -0.20313603 0.044692326 0.00468164 0.08548534 -0.26327413 0.033237103 -0.15886052 0.112908214 -0.12890679 0.05021304 -0.078483835 -0.18602724 0.047518816 0.15117505 -0.024471348 -0.103735425 -0.05155151 0.06981844 0.1607394 -0.041227464 0.09518445 -0.035253223 0.2065556 0.05649785 0.21715485 -0.08768057
KBWD 0.010660521 0.12384083 0.033190135 -0.12471315 0.0328293 0.02005109 -0.10282303 0.06664497 -0.052402154 -0.0004663002 -0.13097277 0.021633124 -0.13435598 -0.025275957 -0.12971562 0.18097566 0.11266384 -0.11802738 -0.5003843 0.032784987 0.01461585 0.1628595 -0.17825565 0.025275696 0.086304255 -0.043878973 -0.1706 0.07974369 0.190982 -0.037858352 -0.06415835 0.12910448 -0.042080224 0.03289264 -0.1806237 0.012570757 0.013902045 0.09274712 -0.10869774 -0.19214903 0.072828166 -0.008521096 -0.00054236467 -0.09513585 0.104192235 -0.037069477 0.088411026 0.14205927 -0.012054109 -0.12709083 0.08687927 -0.07164182 0.11526384 0.001880091 0.079437 -0.025640447 0.020238359 0.0055142688 -0.18772689 0.1592435 0.052481916 -0.053184498 0.11397223 -0.04649133 0.024796573 -0.04819933 -0.07294581 -0.04447488 -0.011197116 -0.03974296 0.019332232 0.04435448 -0.09997194 0.026948744 0.060383163 0.09003751 0.0084974365 0.052083924 -0.09227265 -0.09344656 0.13192147 -0.007029518 -0.010893051 0.07856372 0.0058938195 0.0745867 0.04419519 -0.031531945 0.006819786 0.06122316 0.14018156 0.011172417 0.011843592 -0.08321648 0.22553095 0.11517365 0.1413181 0.10946515 0.1012451 0.0064036236
CLDB -0.10474164 -0.1148344 0.0329524 0.0055298577 0.14199983 -0.08835974 0.09153149 0.05524663 -0.10529158 -0.0028458198 0.14182906 0.08093386 0.012107965 -0.081988 -0.087752305 0.13487102 -0.008562363 -0.085075445 -0.098408766 0.083374105 0.1702756 0.13308525 -0.13219713 0.13427642 0.053966403 -0.113698594 0.04152324 0.11377013 0.16215311 -0.10120864 -0.06912046 -0.01374369 0.08123691 -0.2603387 -0.2665539 0.07951389 -0.013899711 0.018556388 0.015263367 -0.050559353 0.18875131 0.2797867 -0.0062676985 0.034657225 -0.054039095 -0.12688783 -0.17131121 0.34774017 0.060837958 -0.30993655 0.15945609 0.06414208 -0.14009808 0.09493839 0.30277693 -0.011113449 0.15217032 0.13549851 -0.2982206 0.19934537 -0.027363233 -0.050883766 0.25927517 -0.19867271 0.0933568 -0.054287553 0.20403814 -0.10187211 0.02484803 -0.25637138 -0.16033565 0.020259045 -0.34517682 -0.1694318 -0.08524085 -0.07383282 0.04685459 -0.01944812 -0.07360002 0.17191167 -0.082072295 0.08753265 -0.05822986 -0.00514015 -0.015938973 -0.101711184 0.1893342 0.0061845616 0.18669266 -0.019821636 0.018103756 -0.07794522 -0.06776022 -0.105353855 0.23470354 0.017139345 0.09351649 0.116480045 0.21172191 0.022802418
HA 0.035706885 -0.09223449 -0.023064818 -0.048108656 -0.03101473 0.051199503 -0.11518895 0.07866698 -0.03116893 0.09209113 -0.07595084 0.000793186 -0.0027518622 0.06739952 -0.021081539 0.10494656 0.031473905 -0.102685176 -0.2834134 0.057860263 -0.004391781 0.09422945 -0.080223694 0.10994589 -0.004435217 0.072515205 -0.21373251 0.20186615 0.17109965 0.04296249 0.014728826 0.1728788 -0.03659314 0.04729456 -0.32650605 0.14273323 0.09687858 -0.036677033 -0.14692597 -0.14966743 0.026957002 0.060806584 -0.057270188 0.2180265 0.06536797 -0.059431355 0.08516623 0.23290524 -0.029747188 -0.18252566 0.13493459 -0.17625763 0.18016516 0.16614243 0.1192281 -0.12543565 0.01670171 -0.030579524 -0.15487103 0.25566262 -0.10464967 0.017603863 -0.006379649 0.11709817 -0.07258435 -0.057393454 -0.031819373 0.028591814 0.036191933 0.070117235 -0.035425458 -0.022990959 -0.18904425 -0.04912441 0.10196935 -0.06273331 0.030593669 0.16449082 -0.06376492 -0.20479695 0.100583225 0.17230175 -0.054417633 0.077899516 -0.0392166 -0.041997008 -0.05016443 -0.07866937 -0.0810897 -0.0793947 0.16609624 0.034540612 0.029111978 0.04684739 0.18807271 0.08085162 0.101997666 0.17456205 0.19083084 -0.09359068
NLTX 0.014017433 0.024812184 -0.057701662 -0.20533134 0.16043605 -0.13711873 0.03754317 0.03549616 -0.06642216 -0.011663029 -0.025198203 -0.11499493 0.17422777 -0.0069966675 -0.12453487 0.15159939 0.07416 -0.061460063 -0.16522326 0.15071245 -0.006943636 0.11958098 -0.10837917 0.009740307 0.16969284 0.09410883 0.010444506 0.055035576 0.119152546 -0.0704164 -0.086635865 -0.0023747184 0.05876951 0.018068455 -0.2464222 0.083283864 0.1275416 -0.063152365 0.029215325 0.013695939 -0.09400621 -0.064305015 -0.15257426 0.17309023 -0.010454415 -0.06648224 0.034370292 0.15517929 0.0675881 -0.16234957 0.08487263 -0.2900844 0.085197955 0.0060539846 0.20179981 -0.063909225 0.17520738 0.06545845 -0.28161258 0.1699482 -0.1342695 -0.010859587 0.2614034 -0.22361459 0.026474178 0.0068610637 -0.09193557 -0.051854268 0.14829302 -0.015025529 -0.048855867 0.045973405 -0.27016473 -0.21100551 0.031846598 -0.050651964 0.19134645 0.045357846 -0.124461584 0.0021458582 0.0694738 0.028377729 0.068938 0.058723852 -0.10222136 -0.016091518 0.079976134 0.10043764 -0.033521865 -0.10500275 0.21514134 -0.09512608 -0.080514096 -0.1723779 0.16731302 -0.0177546 0.117525935 0.12950443 0.043932963 0.029598447
EBIZ 0.06094983 0.027109249 0.0066052894 -0.061687604 0.007935026 -0.050671365 -0.15765318 0.09162236 -0.040164378 0.07947581 -0.047611333 -0.004482282 -0.10674239 0.00042545854 -0.11042457 0.0054146405 0.21126214 -0.055501103 -0.36873472 0.009040297 0.06517152 0.18163045 -0.15250428 -0.03282942 0.10638082 -0.008189426 -0.14801191 -0.041568458 0.15606007 0.026169943 -0.051702276 0.03460025 0.04274193 -0.08545463 -0.14216653 0.062325764 -0.0012532137 -0.08554745 -0.089550324 -0.06383727 0.038081616 0.010972185 0.071168184 0.038212363 -0.011827871 -0.09457274 0.029772585 0.11939792 0.029960437 -0.10806463 0.052953914 -0.08863253 -0.000816841 0.034041975 0.002324378 -0.00033052487 0.06327109 0.03589109 -0.18194395 0.03857047 0.043170035 -0.027168024 0.04506265 -0.11855494 0.034803048 -0.035608545 0.0069718095 -0.043545976 -0.019187748 -0.0638007 -0.0035355932 0.05011228 -0.17494299 -0.06858607 0.03014079 0.023742361 0.035936695 0.05638446 -0.18460093 -0.08640066 -0.002398932 0.035569545 -0.045723546 0.085012525 -0.00057743216 -0.030411756 0.06351303 -0.010366202 0.019137548 0.015514421 0.07317572 0.05216061 0.0061100437 -0.11635098 0.17913103 0.072336264 0.18051064 0.078747936 0.17990343 -0.01164425
ASNA 0.2169942 0.014300688 0.0022458339 -0.14560366 0.02849807 -0.21093512 -0.055168487 -0.16373402 -0.055347934 0.024622887 -0.09000531 -0.07538548 -0.13197678 0.026350016 -0.15205456 -0.038245045 0.17347695 -0.0126690185 -0.38573062 -0.0015826643 0.06196261 0.06437532 -0.051396612 0.0822606 0.13504697 -0.06907717 -0.08654268 0.080242574 0.042575575 -0.07516745 -0.020732926 0.0028506464 0.00036883607 -0.012721376 -0.14037862 0.12718311 0.13951732 -0.0657277 -0.0746842 -0.15033235 0.16905141 -0.029553771 -0.04041879 -0.006368472 0.106426746 -0.22031349 0.18041557 0.110402234 -0.03210495 -0.101856835 0.095805995 -0.044237312 0.048511136 0.10364797 0.09723077 -0.09590718 0.024845636 0.20954575 -0.0045609446 -0.011705574 0.008226993 0.0012340662 0.031580698 0.019467425 0.0041939574 0.020333821 0.11290672 -0.034905348 -0.0052243113 -0.028832434 0.17543691 0.06207268 -0.1787805 -0.08443134 -0.010256555 0.08955037 0.06914646 0.18938307 -0.30649078 -0.18288738 0.011622681 0.067128114 -0.06486248 0.09668828 0.036735103 -0.054980017 0.07133538 0.08112911 0.044949297 -0.037591692 0.078598626 -0.079604 -0.0014344769 -0.15771388 0.11867607 0.07198071 0.14780167 0.30241686 0.25425345 0.02568736
FSBW 0.05799037 0.060548447 -0.036428902 -0.1129236 0.22087656 0.047558054 -0.16735592 0.13059548 -0.11949008 0.11946405 -0.13431229 0.029392838 -0.14359349 -0.037059058 -0.010936026 0.08210469 0.23414902 -0.1804871 -0.31935135 0.036502227 -0.027758218 0.25460026 -0.1947677 0.096008986 0.033010315 -0.080981605 -0.14072122 0.0157459 0.21213755 0.037228677 -0.04885733 0.10805264 -0.03781028 -0.084954135 -0.2066902 -0.0905143 -0.11952083 0.04640324 -0.20123672 -0.13164563 0.07977474 0.13173611 0.035391018 0.0497946 0.007751068 -0.084899 0.058756724 0.2320508 -0.018114656 -0.05529816 0.033650592 -0.015864886 0.11809878 0.08441336 -0.08733128 0.0658237 0.082669094 0.01860541 -0.28597835 0.15103641 0.12370146 0.022827988 -0.015793975 -0.102568224 -0.019059263 -0.053291343 -0.050364744 0.0022904237 0.03520632 0.092991106 0.013648913 0.23214631 -0.07239762 -0.007496976 -0.045156624 -0.02546466 -0.11325846 0.051914122 -0.081489876 -0.008528725 0.0150039205 0.015015437 -0.11546893 -0.0070723253 -0.023335349 -0.031236278 0.15521093 -0.025171004 0.025025435 -0.00094323605 0.032981053 0.091865055 -0.059626833 -0.03541675 0.17657454 0.15929344 0.19037479 0.07397613 0.10597086 -0.009102405
QIWI 0.03488787 0.16357255 0.00021385867 -0.111106135 0.12072653 -0.092739195 -0.16536285 0.1363489 -0.04893802 0.1480863 0.008382915 -0.056814834 -0.1010309 -0.07866843 -0.032838292 0.31015295 0.25626647 -0.06470224 -0.31625018 -0.083802156 0.1047957 0.21423039 -0.35803998 0.021230644 0.053860128 0.059952177 0.027880907 0.07551802 0.11011472 0.07764538 0.085772805 0.1369619 0.09028138 0.031162111 -0.20659623 0.0440124 0.012172872 0.033993784 -0.070650905 -0.023069851 -0.119989105 0.06164491 0.032033708 0.08812044 0.11665264 -0.10125379 0.008457503 0.23244934 -0.010427164 -0.16665521 -0.06937914 -0.074978575 0.08178417 -0.013261215 0.08463801 -0.04624993 0.15525542 -0.012843656 -0.119569376 0.024618227 -0.029132795 -0.029765321 0.12485063 0.052926887 -0.08402197 0.03721333 -0.0967127 0.031093238 0.025903672 -0.038661893 0.053098217 0.13557862 -0.087907955 -0.08179867 0.05152595 -0.22534817 0.0147898495 0.08381112 -0.033993606 -0.010749619 0.14041008 0.09195154 -0.09937035 0.06034523 -0.06120218 0.02733734 0.056037977 0.018939411 0.0741556 -0.035072524 0.05790161 -0.061445653 -0.112222426 -0.10829162 0.11912932 0.08931459 0.10286251 0.09224642 0.052334283 -0.065250844
AIMC 0.16440634 0.09170347 -0.037880182 -0.21096897 -0.12070045 -0.047228787 -0.09541309 0.041156676 0.035513934 0.19599581 -0.24128772 0.04373521 -0.018377595 -0.08261921 -0.17384098 0.07954299 0.15135795 -0.27933288 -0.42276585 0.010809328 0.07602603 0.18552226 -0.13508703 0.19012532 0.11167219 -0.034681026 -0.1277517 -0.056478098 0.009644548 -0.0047551235 -0.027500741 0.07737455 -0.03916265 -0.025969148 -0.07271532 0.08336592 -0.087787695 0.013960678 -0.0074079963 -0.033341017 0.04867601 -0.08578996 -0.027487315 0.05011421 0.21223712 -0.15330607 0.079324365 -0.028914137 -0.0005950352 0.06881701 -0.060193382 -0.1071455 0.055200826 -0.03724004 0.084163114 0.057885014 0.089202754 -0.101406224 -0.1005317 0.15415297 0.00027569383 -0.0042671114 0.0974788 0.1789148 -0.06791563 0.078900814 0.055287477 -0.03537117 0.23803169 0.016925497 -0.03719693 0.056910135 -0.1601003 0.13532144 0.0952508 -0.04349828 0.117019154 0.24476916 -0.24766706 -0.22578096 0.2502239 0.038707163 -0.21611275 0.0011611071 -0.18539506 -0.09927184 0.00035358575 -0.09654198 0.091885656 0.052037958 0.16808817 0.051313385 0.119540185 -0.042166572 0.1966845 0.13323034 0.16886532 0.10098793 0.36632425 -0.10067144
ELTK 0.059608784 0.023197042 0.04142637 -0.17091297 0.16101123 -0.08673003 -0.10208637 0.030463977 0.02440046 0.20440052 0.059165183 -0.12356252 -0.022859376 -0.06991458 -0.061483685 0.021636255 0.12743747 -0.12725642 -0.24026422 -0.007222237 0.058004305 0.1715087 -0.14524704 -0.047322154 0.14153737 0.0048845094 -0.034630742 -0.06700496 0.10420985 -0.113008 -0.09540276 0.11433024 0.08679853 -0.029785622 -0.25071338 0.009586949 0.03506858 -0.078847855 -0.14308842 -0.016443683 0.16695477 0.087692305 0.009295758 0.008180919 0.084080905 -0.251725 -0.036966715 0.19494472 0.1071023 -0.22348215 0.027459186 -0.08511031 0.022208873 -0.02797988 0.17570327 -0.07234986 0.04188223 -0.079687364 -0.20681392 0.11921441 -0.010471702 -0.067252986 0.058984913 -0.030853206 -0.07409358 0.07800175 -0.05662705 -0.07913667 0.063638 -0.08528853 0.103125684 0.079064876 -0.20420927 -0.021656958 0.0757295 -0.043872293 0.06259362 0.060047504 -0.15751284 0.016413031 -0.025561178 -0.023427475 -0.06973371 0.03704584 -0.08510746 -0.13832493 0.026402505 0.090187885 0.012560614 0.021793641 0.10378016 0.012894907 0.16070372 -0.057946704 0.1367863 0.16482808 0.16382265 0.0012363546 0.095159434 -0.01881419
SNCR 0.10865141 -0.035825815 0.0028458505 -0.15089773 0.08704149 -0.10918705 -0.0638653 0.04854199 0.029886974 0.07493921 -0.05108652 0.022887582 -0.039494555 -0.16864385 -0.139459 0.13110703 0.084298216 -0.0545151 -0.3178879 -0.016259676 -0.031496145 -0.009930759 -0.17205593 0.087540075 0.07184935 0.019966286 -0.1079383 0.14132056 0.14281026 0.083946295 -0.11989896 -0.07309825 0.046627462 0.032783553 -0.20678939 -0.029178895 -0.034123544 -0.0066587334 -0.08504377 -0.027164524 0.060181502 0.08754394 -0.000736607 -0.08453106 -0.12752935 -0.2144733 -0.00066062907 0.1633671 0.13797641 -0.21324778 0.07371742 -0.08140557 -0.0130341565 0.058832966 0.18722853 -0.059002046 0.19309726 0.13883358 -0.25630447 0.25810707 -0.16556205 -0.06140574 0.12842382 -0.1980287 0.083621204 -0.033105075 0.03529799 0.030522734 0.0986691 -0.14578182 0.017412761 -0.085211776 -0.15686086 -0.21038012 0.024533624 -0.05144404 0.15005212 0.23257466 0.052405242 0.010333116 0.14688264 -0.00018618595 -0.026873399 0.08080852 -0.096360564 -0.084843606 -0.06789067 0.031563416 0.12157564 -0.037345815 -0.06474245 -0.051066205 -0.041988052 -0.21330065 0.02182582 -0.07099488 0.101590164 0.16276853 0.1357449 0.08560613
LRGE 0.08603238 0.020932952 -0.003923192 -0.18651289 0.0892036 -0.056570612 -0.17431413 0.0867915 -0.10053888 0.045014944 0.011981099 -0.06363943 -0.102356285 -0.04501843 -0.1005079 0.14744312 0.13658506 -0.08376733 -0.34202895 0.026494883 0.086867854 0.14253522 -0.16634063 0.028862173 0.0980851 -0.011880513 -0.1033911 0.032179877 0.13276367 0.03178432 -0.019730248 0.07593757 0.02773596 -0.03236665 -0.17778742 0.043176938 -0.034892622 0.009105785 -0.07468167 -0.068980865 0.022802036 0.020169472 0.033817638 0.0581174 0.039050594 -0.07676008 -0.009095986 0.1802863 0.04474996 -0.17911854 0.0057246936 -0.0805579 0.0371775 0.010487229 0.08737352 -0.008584697 0.083523154 0.02015354 -0.12806436 0.060980007 -0.0031666637 -0.010223679 0.04959527 -0.037334505 0.018909384 0.0012062582 -0.019579483 -0.043929532 0.03148903 -0.024184762 0.010197067 0.08710351 -0.18466553 -0.06207696 0.046593364 -0.07048503 0.018288622 0.03692234 -0.10140934 -0.03753174 0.0897866 0.07965947 -0.040657576 0.08133494 -0.049555123 -0.042904057 0.045607854 -0.015433894 -0.008365036 -0.027811898 0.038519528 0.016007043 -0.04592949 -0.12014664 0.13896556 0.09466834 0.16410144 0.051673803 0.10656916 -0.007293734
IOTS 0.064375125 0.051231112 -0.13902289 -0.16419108 0.07988189 -0.0016134835 -0.13618909 0.18542553 -0.034120522 0.009812158 -0.20959488 -0.013196621 -0.029661287 -0.11024504 -0.16436277 0.16430952 0.031880036 -0.20236658 -0.2263155 -0.053729568 0.134825 0.10005149 -0.083441526 -0.0003660907 0.0038879835 0.019262446 -0.013236921 0.15808631 0.11958794 -0.039202616 -0.1380725 0.12085695 0.01588851 -0.001771254 -0.3142927 -0.07131909 0.07086749 0.055014625 -0.019834489 -0.060057245 0.08058493 -0.059844293 -0.0026021672 -0.13167964 -0.037879057 -0.08929474 0.07608397 0.19468027 -0.03677033 -0.071725786 0.07334428 -0.17991856 0.051593244 0.020246394 0.0077493917 -0.1083126 0.11348488 -0.056082174 -0.34618878 0.24352989 -0.031118417 0.06873275 0.01882221 0.06648779 0.059754845 -0.016521273 0.07004208 -0.055478457 0.1472721 -0.017977802 0.007671557 -0.006668916 -0.108834855 -0.070025325 0.04012464 -0.06650755 -0.0054910807 0.10676072 -0.044557843 -0.09934258 0.13050312 0.04658121 -0.0041601127 0.094602235 -0.112891674 -0.096972376 0.08613425 0.09081542 0.009785768 -0.043808315 -0.071949 0.00873824 -0.04403312 -0.16703635 0.08906669 0.22219825 0.17712168 0.11333873 0.288979 0.0148223275
KLDO 0.31494847 -0.1544943 -0.05506557 -0.093844295 -0.06822628 -0.27063614 -0.03451318 -0.115652755 0.01052494 0.006616381 0.062573396 0.11210771 0.018841714 -0.04769486 -0.15626886 -0.028635668 0.2880073 0.06472098 -0.3315933 -0.02370345 0.15224884 0.16783 -0.0019602883 0.020836528 0.11242538 0.051361386 -0.09513073 -0.10720994 0.1308615 -0.046895538 -0.012764686 -0.2030647 0.15780348 -0.11318303 -0.20947179 0.19237871 -0.01219658 -0.34868476 0.043768674 0.17539188 0.111123085 0.16312103 -0.033943467 0.27930537 -0.06580026 -0.25912973 -0.1672216 0.099818945 0.18757753 -0.19077893 -0.065353416 0.11268812 -0.12702045 0.15526281 0.038823526 -0.01914327 0.121252015 0.11758463 -0.14044975 -0.06212836 -0.07022869 -0.020546224 0.14811362 -0.14328957 -0.0749508 0.12405881 0.26963612 0.1310193 0.23190416 -0.06645989 0.0183264 -0.02878343 -0.28043112 -0.23056823 -0.16196558 -0.025026955 -0.057817325 0.09984417 -0.22911926 -0.1626001 -0.012749988 0.16822444 -0.17321976 0.14444853 -0.16133927 -0.16455485 0.0615057 0.07994587 0.034579556 -0.043939337 0.081893496 0.007494028 -0.012172502 0.04650123 0.062629625 -0.13495137 0.18881284 0.15564798 0.35768244 -0.08178261
DVOL 0.06426604 0.012335252 -0.0010604854 -0.09460377 0.06305888 -0.06798298 -0.15643087 0.063967764 -0.050757956 0.03622851 0.05686197 -0.0105904 -0.16828206 -0.049186584 -0.08831153 0.08034392 0.19862175 -0.07445616 -0.28425425 0.010589459 0.078409456 0.15050294 -0.16293389 -0.03301312 0.13385831 0.017235624 -0.10869212 0.035068247 0.12769729 0.05145439 -0.023458421 0.0008088017 0.033603214 -0.08952104 -0.21028133 0.036894653 -0.07798224 -0.083853446 -0.14576505 -0.0057908352 0.06029208 0.10207801 0.014525255 0.08577672 -0.010197126 -0.09157713 -0.033232763 0.16283336 0.05815731 -0.20513105 0.08483626 -0.001375495 -0.0057992544 0.009203145 -0.028349739 0.09018783 0.08070006 0.0010697375 -0.19613379 -0.03181913 0.046448443 0.018356891 0.056739844 -0.055082377 -0.025165109 -0.014389092 0.021712726 -0.043126356 0.009748768 -0.087484166 -0.018904312 0.14343135 -0.18219854 -0.08536322 -0.041523766 -0.041387886 -0.013299099 0.019899094 -0.13687354 0.0580911 -0.04552287 0.059922505 -0.049828924 0.04653196 0.0024925007 -0.06626579 0.07458533 0.05283525 -0.007059617 0.023240728 0.018726228 0.1034512 -0.025724012 -0.097208194 0.15540896 0.14403564 0.26422724 0.06858286 0.11533454 0.015744569
NCBS 0.11535134 0.078675725 0.09215522 -0.20577866 0.0066930917 -0.083060764 -0.15204503 0.13566966 -0.08522236 0.02865058 0.04163219 -0.05830585 -0.090097524 0.024607392 -0.19010502 0.124176055 0.14092657 -0.1740285 -0.46163404 -0.0015459374 0.03588055 0.101710565 -0.13108818 -0.015084496 0.060683127 -0.07949241 -0.24864982 -0.03276791 0.21729685 -0.0810981 -0.1161664 0.049695063 -0.024936998 -0.087259986 -0.15681899 -0.016830223 -0.068495445 -0.031232381 -0.12171766 -0.14657299 0.17469938 0.010674403 0.06798354 -0.13603915 0.078367434 -0.10481116 -0.05904319 0.0634942 -0.021443633 -0.22805153 0.089065984 0.030933542 0.054814246 0.044589892 0.098445706 0.050874043 -0.1452464 -0.036576882 -0.17824143 0.053485204 0.0035246424 0.09390159 0.1518861 -0.039425906 -0.10099812 -0.03764208 -0.012497038 -0.16535775 -0.103021145 -0.08547853 -0.18692645 0.042410634 -0.13003029 0.13424765 0.13088697 0.0612244 0.09452801 0.12950319 -0.10099933 0.060486853 0.10886902 -0.083914906 0.043124497 0.08270273 -0.012471441 0.032519735 0.10046463 -0.1232649 -0.058045506 0.04181442 0.17377004 -0.046207786 -0.027257431 0.08227 0.31904766 0.05167043 0.23492509 0.078268014 0.10862465 0.12701038
OPK 0.082148254 -0.010575286 0.040143907 -0.033059563 0.2411427 -0.065582834 -0.060039245 0.001323898 -0.035908733 0.142164 -0.017545437 -0.075551696 0.06114123 -0.08409114 -0.12073724 0.10560177 0.011734953 0.09112512 -0.38267142 0.028231818 0.035121832 0.059318777 -0.034782425 -0.09789051 0.16234495 -0.016013505 -0.27197072 0.2443372 0.18820882 0.03538003 -0.0211861 0.11744892 0.07461848 0.13488868 -0.23848578 0.12820931 0.06740241 -0.17394195 -0.009601797 -0.0975461 -0.07390567 -0.066721864 0.108212575 0.051443275 0.007965193 -0.06233884 -0.039651953 0.19035551 0.20383084 -0.17313805 -0.14563513 -0.1821983 0.21100228 0.19638327 0.10607345 -0.115737595 0.0016123632 0.13116981 -0.1913977 0.1340507 -0.044702154 -0.042796306 -0.043921944 -0.04388864 0.07260805 -0.07001661 -0.14188944 -0.0086264415 0.05071949 -0.036327124 0.033358403 -0.013125735 -0.2060027 -0.15810914 -0.08472003 -0.021334937 0.13000037 0.1846931 0.046862107 -0.162163 0.17616841 0.13970491 -0.02898324 -0.05200253 -0.17377941 -0.0731882 0.014317392 -0.042506766 0.1014119 -0.196367 -0.06715464 0.05198147 -0.07573172 -0.11549065 0.15073875 0.01687408 0.032774698 0.036528144 0.27729875 0.057273515
BOKFL 0.09635989 0.00077581085 0.110560544 -0.12430655 0.13997513 0.07255026 -0.27938917 0.15791033 -0.1813928 0.048890162 0.045526527 0.10084485 -0.2694084 -0.080145076 -0.12173292 0.13217767 0.19916521 -0.10029222 -0.33074218 0.033628464 0.013275159 0.21240756 -0.21645063 -0.04736116 0.11240971 -0.097425066 -0.1811747 0.04426501 0.19789092 -0.0019073073 0.019910272 0.042416215 -0.030463273 -0.086868525 -0.14819369 0.02197447 -0.08346686 0.1302161 -0.2194013 -0.09563902 0.16737981 0.0480176 0.03018531 -0.10795474 0.13680612 -0.07889757 -0.010158018 0.1942698 0.041291054 -0.21128683 0.017733444 0.14500369 -0.019661408 -0.04281956 0.005819704 0.06519844 0.0066876095 0.010597039 -0.19719361 0.02516851 0.018208915 0.001835158 0.1300891 -0.023852805 0.05627335 -0.040244214 -0.019825188 -0.07376747 -0.065144464 -0.13047439 -0.044089977 0.21209545 -0.104110025 0.011636502 -0.06585647 -0.0077422936 -0.060938496 -0.003225775 -0.18030399 0.05865625 -0.047543276 0.036466528 -0.019844288 0.092751004 0.07666134 -0.047554538 0.090367824 -0.052620996 -0.09165415 0.09337685 0.065677844 0.044543877 0.038060408 -0.071049616 0.2659301 0.099409245 0.15456216 0.03222607 0.0066225952 0.041958172
NTRP 0.18424377 -0.063287176 -0.005322547 -0.13788062 0.0007621077 -0.11775282 0.0032826832 -0.018461322 0.026256807 -0.119028136 0.020711973 -0.011366155 -0.019540261 0.029582173 -0.121773474 0.13782948 0.05401574 -0.11308091 -0.2099666 0.15403697 0.17737144 0.17699385 -0.033418365 0.036948256 0.11304417 0.024553383 -0.16525102 0.050427094 0.26105022 0.09515212 -0.09550586 -0.008345634 0.20387916 -0.0063982755 -0.39026248 0.16087943 0.083685145 -0.14611275 -0.010487395 -0.07818742 0.11354956 -0.019709017 0.0022469235 0.084375665 -0.05262897 -0.08330602 0.0775071 0.11312239 0.114095375 -0.031220384 0.07705525 -0.02579754 -0.07237793 0.033352915 -0.022927422 -0.066742815 0.09366068 0.053076472 -0.12970173 0.029356074 0.09719152 0.03171003 0.083169036 -0.12192798 -0.013287906 0.024139822 0.090430856 -0.05604626 0.103495784 -0.23264836 -0.03991005 0.01619457 -0.4073662 -0.12861297 -0.02776053 -0.0357285 0.022288976 0.18594198 -0.17748751 -0.034093145 0.025338106 -0.10849421 -0.06328871 0.08391397 -0.05163349 -0.1263702 0.20307873 0.055037748 -0.12806696 -0.07555322 0.13212271 -0.10408164 -0.0107819 -0.09966432 0.08512335 0.03578615 0.08937593 0.032265186 0.24006167 0.07614474
RAPT 0.352324 -0.12440608 -0.07764723 -0.21001662 -0.05159185 -0.24511041 -0.003334785 -0.08784513 0.10338488 0.15117384 0.007355837 0.035876617 0.078015 0.04107367 -0.098343536 -0.04991506 0.29479462 -0.01846559 -0.29488036 0.003061579 0.13672732 0.16570999 -0.02046156 -0.059253074 0.22896028 0.19604516 -0.013151732 -0.07478273 0.15890393 0.1781418 0.00037610056 -0.13758022 0.24743746 -0.122397944 -0.16490479 0.2684947 0.146182 -0.47675133 0.06972043 0.16847467 -0.0312504 0.12880915 -0.08340691 0.3084654 -0.16485108 -0.26727742 -0.19377771 0.12513207 0.21467647 -0.07813715 -0.015534655 -0.10010003 -0.24535929 0.25295392 0.03720229 0.015947932 0.19059959 0.14381751 -0.16517422 -0.05536655 -0.095308706 0.043583546 0.10303417 -0.09786491 0.030327786 0.11432934 0.22658058 0.09666563 0.13888244 -0.089267164 -0.015062735 0.07444077 -0.25361848 -0.23256302 -0.14618744 -0.021596687 0.113626644 0.07291287 -0.17102987 -0.03234497 -0.094364576 0.22784296 -0.10110948 0.082537726 -0.29092124 -0.3084106 -0.012904072 0.16448608 0.10293334 -0.14579645 -0.0024799278 0.055890843 -0.015275328 -0.085697696 -0.05134721 -0.21738815 0.035693288 0.11371036 0.42838943 -0.14234282
ICLR 0.005802205 0.15244167 -0.024732588 -0.24668412 0.28045055 -0.08567594 -0.08576767 0.014571589 -0.1312313 0.10092618 -0.030245908 -0.17170018 -0.08953955 -0.03752047 0.020188026 0.21806087 0.10898447 -0.14951085 -0.25636008 -0.068231516 0.088861145 0.17503037 -0.16622692 0.0070689307 0.24735712 -0.07245014 -0.030895006 0.092300825 0.108510524 0.06088624 0.031064479 0.14759994 -0.026467567 0.04783871 -0.22640751 0.06263867 0.056745302 0.033683445 -0.047627214 -0.2940944 -0.106633954 -0.055426933 0.04592594 0.10909795 0.13789256 -0.15019321 0.027094863 0.16982749 0.2166612 -0.16227485 0.06268224 -0.1318962 0.23297857 -0.0932003 0.14129347 -0.14988883 0.12352438 0.040653456 -0.14024192 0.15837775 0.053936757 0.0038515257 0.057802632 0.12210248 0.06164068 -0.08050566 -0.087714404 -0.03647853 0.088043064 0.1403107 0.095316246 -0.014271742 -0.05896366 -0.033855774 0.089624956 -0.19679405 0.07499408 0.07278687 0.16886936 0.08860315 0.093989946 0.20035475 0.011118377 -0.043429676 -0.012850675 0.12573792 -0.04441384 0.00072025915 0.119436175 -0.021444932 0.086766124 0.03244276 -0.11620759 -0.056185983 0.15814622 0.17122446 0.27908576 0.22078694 0.075542174 -0.007415078
PFG 0.05769236 0.13425311 -0.07837928 0.027272673 -0.030752694 0.00062865816 -0.055917222 0.029381467 0.020285873 0.057589464 -0.20260239 -0.032755785 -0.14241688 0.06744957 -0.16007033 0.01808476 0.14125074 -0.22309382 -0.50502735 -0.034285814 -0.027595667 0.2004765 -0.15400097 0.05482129 0.043167986 -0.08124678 -0.21611233 -0.011878999 0.28932515 0.10562176 -0.11244734 0.02537462 -0.20808189 -0.040575024 -0.31033593 0.004469698 0.021331837 0.09063171 -0.06877414 -0.11877274 -0.014871726 0.026067121 0.043049432 -0.08776135 0.026749434 -0.1431006 -0.01641139 0.06993156 -0.068574205 -0.18438937 0.15461525 -0.0059059104 0.2570847 0.0080694975 0.07336627 -0.0033827669 0.02645785 -0.077338584 -0.26890996 0.12566018 -0.044575404 0.010810718 -0.016682902 0.04155477 -0.10843766 -0.0024267882 0.010034255 -0.0064587775 -0.06819112 -0.073565885 -0.0923455 0.13931853 -0.05716111 -0.00076268613 0.19845338 0.014417542 0.07521088 0.11529841 -0.22569017 -0.09490614 0.09510439 -0.0026923802 0.020338763 -0.040443573 -0.12092979 -0.065894 -0.022546725 -0.0082126325 0.027592195 0.121940255 0.11050092 0.032890353 -0.07164174 -0.01838875 0.1858735 0.08760883 0.13881944 0.063854255 0.01305065 -0.0550932
MORN 0.15819193 0.058893204 -0.104158066 -0.17966408 0.0020545775 -0.08445902 -0.1809153 0.040005848 -0.07063365 -0.022217013 0.0014145293 0.023614572 -0.15871276 -0.037593365 -0.04219512 0.058058728 0.25220773 -0.1769238 -0.23754416 0.011764818 0.044911202 0.0909076 -0.040574435 -0.027260043 0.0071566943 -0.026012952 -0.13207512 0.021693902 0.05018239 -0.020476824 -0.033435337 0.017978031 0.037247296 -0.035442013 -0.15078616 0.10207171 0.15967727 -0.029560013 -0.14089513 -0.08679917 0.118784115 0.1027283 0.03859546 0.07025846 -0.115736775 -0.06803776 0.07052467 0.2587472 0.071198694 -0.14819728 0.13293916 -0.13678224 0.109030075 0.13121992 0.11551948 0.03530947 0.15151154 0.0064361333 -0.13520059 0.14055271 -0.010385224 0.04274978 -0.05974488 -0.066048354 0.072335206 -0.03384827 -0.08195844 0.078462355 0.038429998 -0.051757645 -0.049963955 0.1495489 -0.15149134 -0.0034375205 -0.059076667 -0.00084186177 0.057071008 0.106997795 -0.092558734 -0.018734293 0.061263703 0.07814074 0.029335553 -0.03423539 -0.08453553 -0.051983036 0.026394958 0.036868297 -0.05658928 -0.14515029 0.011941263 0.09407117 -0.057406973 -0.14435925 0.15325736 0.047560845 0.19193025 0.15794039 0.12812118 0.008212613
XONE 0.09376969 0.14231504 -0.07230527 0.02967739 0.061199617 0.007237297 -0.23291129 -0.025771707 -0.063505135 -0.004662017 -0.058108103 -0.015972368 0.07166563 0.014974112 -0.18765272 -0.05022535 0.13305436 -0.21301161 -0.33153507 0.086509496 0.010589079 0.12275434 -0.15283772 -0.024434192 0.10511687 -0.05770653 -0.23766713 -0.068876825 0.15008672 0.088374615 0.022977991 0.1670686 -0.12966207 0.17007597 -0.123759985 0.15282501 0.028951077 -0.03514531 0.03641881 -0.13847785 0.046130456 -0.098500006 -0.03389448 0.21528316 -0.09727903 -0.10061342 0.033366982 0.09174741 0.07793202 -0.14145559 0.07921434 -0.1950106 -0.0339598 0.012215792 0.16581537 0.019754881 0.17086829 -0.038766947 -0.22546567 0.10854898 -0.03904473 0.0036286777 0.16446598 -0.01157081 0.01173208 0.030338341 -0.07251113 0.035390574 0.20183867 0.15975134 0.014786675 0.021779485 -0.2623435 0.058671653 0.101831324 0.012595943 0.18453732 0.067432866 -0.024176465 -0.1761523 0.19814667 0.023295265 -0.034438286 0.081835106 -0.00749265 -0.040453162 0.054227296 0.00056471745 0.04680467 -0.12092599 0.06809989 -0.000796446 0.04013657 -0.026735086 0.14533582 0.07844669 0.19624995 0.10232516 0.2133287 -0.035973545
NKTR 0.0071362364 -0.019357556 -0.11331513 -0.084587336 0.122038774 -0.0048592035 -0.03559244 0.054427505 0.004198085 -0.021979986 -0.034368392 -0.044842005 0.116809614 -0.14039284 -0.03047803 0.099163964 0.022894932 -0.08006618 -0.33067423 0.17664576 -0.013993426 0.10769766 -0.15517513 0.072714135 0.120319575 0.07779095 -0.034802664 0.16452453 0.10331326 -0.021401184 -0.12305059 -0.17418134 0.05713823 0.04947686 -0.3531651 0.00461367 0.0782002 -0.10928417 -0.043519333 -0.15723467 -0.025856279 0.045988023 -0.1284419 0.013211716 0.013838749 -0.065611385 0.014980819 0.19818325 0.0008978747 -0.13532616 -0.017635752 -0.22600764 0.016606914 0.111805275 0.07124907 0.08517463 0.061413765 0.018279783 -0.27712616 0.18536836 -0.15445851 -0.014340702 0.08315377 -0.13706587 0.09271827 -0.059549406 -0.027673505 0.0003766841 0.1240733 0.008751967 -0.06609524 0.059944067 -0.31521654 -0.22184534 0.08736431 0.011647434 0.07159311 0.0030120984 -0.033671137 -0.20309396 0.13012844 0.034991078 0.026037525 0.046816394 -0.037668016 -0.061893143 0.012896785 -0.02256421 0.12145447 -0.023063483 0.15061858 0.057070076 -0.036339965 -0.20110239 0.07402159 -0.08236535 0.14085668 0.029225029 0.20849647 -0.056449965
FANG 0.0987022 -0.035451178 0.0858753 -0.23893532 0.10606795 0.052991327 -0.115019724 0.02523136 -0.03169331 -0.045711707 -0.08563009 -0.07434198 -0.16317378 0.017684383 -0.096604235 0.14476019 0.055045363 -0.1745385 -0.37733203 -0.05013877 0.04751679 0.19075547 -0.15158449 -0.014961248 0.08915953 0.038094994 -0.16377856 0.05933882 0.10791297 -0.045792483 0.009175503 0.028157802 -0.04416643 0.09952674 -0.12318342 0.04107718 0.13297445 0.09315547 -0.09812121 -0.022550115 0.10305217 -0.014915407 0.014851242 -0.0013234927 0.0712056 -0.04387741 0.07580039 0.19466743 0.06953857 -0.16786261 -0.17815302 -0.11652246 0.05596536 -0.035930075 0.25307804 -0.074709676 0.06931395 0.0029645243 -0.187357 0.15726301 -0.047427665 0.075071305 -0.0513196 -0.010154229 -0.011690852 0.030183082 0.0016722388 -0.09699996 0.19555898 0.046168234 0.14579964 0.0593506 -0.103628516 -0.088417776 0.016725954 -0.032942705 0.15947403 0.15761589 -0.02374634 -0.07751861 0.07877424 0.15598458 -0.040725276 0.10160304 -0.12542221 -0.1195039 0.08028328 -0.12895997 0.057662107 0.025375014 0.055215288 -0.06975706 0.058194853 -0.15946746 0.10368359 0.09442323 0.13685079 -0.0058729663 0.10727466 -0.05348004
CERS 0.14407595 0.07046613 -0.022150772 -0.24191736 0.040719453 -0.087576844 -0.06968608 0.1100076 -0.106051706 -0.030384747 -0.08802052 -0.08570659 -0.018801877 0.21739325 0.012079764 0.31576964 0.19789895 -0.12172658 -0.30720866 0.09869363 0.023142029 0.013795895 -0.17260215 0.0068070246 0.17349133 0.016106244 -0.10308087 0.070875876 0.26272658 0.06754343 -0.09062856 -0.044312097 -0.080950566 -0.017302515 -0.2706506 0.031402484 0.22746114 -0.046582248 -0.16555797 -0.1546945 -0.04384491 0.08849133 -0.028074654 -0.07959302 0.086670816 -0.12943019 0.010336074 0.24240726 0.160111 -0.16330285 -0.0015022616 -0.30405766 -0.06881689 -0.07528934 0.2440137 -0.08322727 -0.012425092 0.063692 -0.10359427 0.2037798 0.024369486 0.021789981 0.05468311 -0.033353176 -0.060998533 0.11315711 -0.12677376 0.074163966 0.0035221167 -0.13067506 -0.017069988 -0.055193305 -0.10091436 -0.04092481 -0.06894838 0.08283276 0.057981238 0.16575736 0.08979559 0.05510392 0.037164107 0.17061426 0.072091036 0.07194399 -0.16687745 -0.059338156 -0.01643651 0.050493572 0.1727495 -0.06827832 0.0705885 -0.045870844 0.0476296 -0.1299502 0.09008199 -0.055047143 0.020240564 -0.061206497 0.09159706 0.109611675
ANAT 0.042520966 0.1794408 0.0013850328 -0.18464002 0.016896227 -0.008183709 -0.14988805 -0.028940646 -0.10703509 0.095628135 -0.22796169 -0.11306146 -0.26648432 0.008263118 -0.31381655 0.091147535 0.19048315 -0.115343526 -0.46399766 -0.061726592 0.05225656 0.12530762 -0.03850914 -0.019923147 -0.017008789 -0.10437238 -0.2754167 0.05037634 0.08917379 -0.030356782 -0.19139554 0.07615262 0.018914066 0.055719353 -0.14493425 0.1016342 0.0820761 0.042099517 -0.06390993 -0.1135496 0.28859076 -0.05210897 0.020084871 -0.15719813 0.012614348 0.013136408 0.12520753 0.12851645 -0.046374027 -0.1683227 0.106146336 -0.055288114 0.12139456 -0.034938976 -0.06444425 0.061180137 0.029660456 -0.019111546 -0.22321628 0.055902515 0.20517726 -0.06173402 0.031350266 -0.05232838 -0.008405354 -0.048565507 0.07134583 0.0237599 -0.013159134 -0.09800443 0.064917356 0.051876124 -0.08247023 0.03415593 0.066572785 0.12432818 0.07247525 0.19475406 -0.08956506 -0.039336797 -0.05241866 -0.09047675 0.044904646 0.09761561 0.00887549 0.06777653 0.086709954 -0.10735542 -0.08191509 0.113024995 0.08620768 -0.00883212 -0.09268426 -0.13107762 0.28908494 0.1901163 0.16361706 -0.05314758 0.05754908 -0.0070137354
FTSM 0.0387858 0.11768759 0.02906579 -0.15237314 0.10212023 0.061279282 -0.24130084 0.16829623 -0.14808512 0.048991453 -0.0027201725 -0.020571291 -0.15115796 -0.022527302 -0.115795225 0.13896981 0.09103057 -0.16325764 -0.34404346 0.063392006 0.030395139 0.14547068 -0.18354234 -0.021314858 0.07430781 -0.0688484 -0.069661394 0.056336593 0.124461405 0.006918807 -0.043959785 0.09464993 -0.039575126 -0.016598236 -0.19632672 -0.0014039129 -0.06957752 0.21365215 -0.17344123 -0.13211723 0.07455757 0.003722117 -0.018677207 -0.04493542 0.13020751 -0.06486217 0.023920102 0.2013573 -0.016394937 -0.1484081 0.049543668 -0.00693294 0.08324884 -0.040545475 0.056984283 0.007648501 0.09496458 -0.05007535 -0.16085306 0.10881141 0.017071912 -1.0593371e-06 0.04059115 0.03290033 0.033753082 -0.03275388 -0.04301435 -0.0713672 -0.027788412 -0.026449317 0.025380222 0.13916746 -0.13351892 0.04800987 0.055881802 -0.016076855 -0.017064594 0.062463526 -0.089841135 0.011659562 0.05027143 -0.0038835325 -0.050242044 0.038393922 -0.011402596 0.013835004 0.041238055 -0.0063804607 -0.012465247 0.11270947 0.08814189 0.091812044 -0.016789706 -0.14372297 0.22763877 0.19581972 0.23695777 0.09276262 0.1228689 -0.009584442
GNCA 0.07059685 0.06647372 0.075035 -0.19429131 0.058893416 -0.06912393 -0.12216297 -0.110324785 -0.13257797 0.04054973 0.051228825 -0.07694277 0.10202975 0.0014769523 -0.018518303 0.1446839 0.07584198 -0.03152169 -0.36380795 0.17006809 -0.046544634 0.16202994 -0.17503566 0.019210115 0.20398353 -0.14323258 0.0021968402 0.04633653 -0.0014776967 -0.04764626 -0.09200745 -0.04163046 0.0036234544 -0.08812911 -0.11016638 0.22336277 0.19715351 -0.04992199 -0.025902886 -0.13234726 -0.06976057 0.12901723 -0.0025925366 0.089069195 0.051111616 -0.085610464 -0.032441795 0.060499478 0.13193437 -0.3234148 0.13784784 -0.10807982 0.09412783 0.04577476 0.15498108 0.033427957 0.009248075 0.052040875 -0.24108316 0.0727794 0.01910577 -0.030551093 -0.04988158 -0.064418174 0.065772444 -0.013161334 -0.017579889 0.114947125 -0.012062421 -0.033629704 -0.14614938 -0.040441845 -0.21103105 -0.23537779 0.12676384 0.004466595 0.0763878 0.19156846 -0.03628001 -0.014464328 0.110822916 0.0418599 0.039000195 -0.01411493 -0.08164256 -0.065948576 0.17603433 0.09647713 0.080632694 -0.048235442 0.07648174 0.06746351 -0.14462113 -0.03820907 0.13532256 -0.03186895 0.13485812 0.026161574 0.23985635 -0.026852017
GPOR 0.035960708 0.030447029 0.0016294027 -0.21861243 -0.0021183023 0.1490989 -0.029696502 -0.012629458 -0.0091644935 0.08123466 -0.06664822 -0.023554198 0.05527932 0.073681146 -0.1581608 -0.03722482 0.06867456 -0.09100616 -0.44725543 0.12398481 -0.0018159759 0.26935956 -0.1353462 -0.0069193216 0.07283562 -0.18490939 -0.10485192 0.0023435878 0.21170811 -0.02443139 0.012746933 0.033149555 -0.11670894 0.044653267 -0.17860647 0.13421169 0.17696995 0.10602823 0.006829148 -0.08819405 0.09948244 0.0763724 -0.06420019 0.103924945 0.0023895002 -0.19356559 0.16836534 0.09649423 0.038518175 -0.2408929 -0.16570379 -0.093440436 -0.018835645 2.2675504e-05 0.12228289 0.08405921 0.10642446 0.13839163 -0.2579417 0.09806943 -0.10777418 -0.10643403 0.22543491 -0.030668557 0.119494624 -0.05466452 0.09793422 0.11157337 -0.022229036 -0.03510584 0.06499229 0.11669938 -0.13278894 -0.077623636 -0.05635675 -0.031997144 -0.0066804383 -0.024181027 -0.16565207 -0.1294226 -0.03346235 0.18246889 -0.026217263 0.2201413 -0.09358535 -0.017115595 0.11447563 0.036141243 0.054994706 -0.050906703 0.122908264 0.01719514 0.0134164365 -0.04348945 0.05705491 -0.104111835 0.15595672 -0.016891612 0.040071182 0.041753545
UMBF -0.021689702 0.1620046 -0.033101056 0.076335266 0.009872712 0.13710612 -0.17064309 0.11588993 -0.086970136 0.0035857325 -0.29950267 -0.0117890565 -0.22013153 0.083846994 -0.07341823 0.123723365 0.05306281 -0.13964526 -0.6929468 0.008679615 -0.15366724 0.21115203 -0.13528763 0.08061544 -0.1507674 -0.08091153 -0.13398339 0.019043474 0.2593747 -0.13035336 -0.20061804 0.1305187 -0.27407116 0.018556314 -0.15915293 0.04807949 0.09134919 0.282714 -0.17916204 -0.25649074 0.28624788 0.13605934 0.011442351 -0.31702754 0.08824882 -0.045944955 0.18348855 0.08746099 -0.16325845 -0.13500668 0.20186396 -0.04458693 0.13779539 0.0042837504 0.064584255 0.021815814 -0.11968822 -0.06923663 -0.36019346 0.39150888 0.030078452 -0.081922896 0.067676574 -0.078569755 0.016574426 -0.077366486 -0.059457853 0.06383454 -0.14092527 -0.015257144 -0.032053407 -0.046185873 -0.10637367 0.12193952 0.11868522 0.2428214 0.045855284 0.14271814 -0.26416203 -0.07905508 0.13691594 -0.14129926 -0.0032889033 0.12744392 0.020036744 0.050003264 0.08091539 -0.061404515 0.018781142 0.06648714 0.18088661 -0.06189263 0.045220733 -0.058138035 0.29308698 0.18468148 0.048940632 0.017850524 0.1410812 0.116159104
ATHE 0.1932367 -0.0010578538 -0.044164333 -0.20421425 0.20409375 -0.21996051 -0.17257658 0.026752962 0.09913284 0.038142525 -0.01384103 0.07975081 -0.0530663 0.0023341014 -0.14952801 -0.060886804 0.012292859 -0.003783661 -0.1615825 0.18197034 0.018983906 0.1398747 -0.08352441 -0.010126676 0.07903448 -0.048296463 -0.24745998 0.026500436 0.15142101 -0.12029548 -0.011099198 0.0041562784 -0.0487556 -0.13572103 -0.19883968 0.0023907477 0.09093401 -0.05737178 -0.054942153 -0.08071992 0.10193143 -0.0043634325 0.0144497985 0.083955556 0.00010822967 -0.07065629 0.019955052 0.10894115 0.0543046 -0.16018301 0.18407963 -0.2145339 -0.017880049 0.0016949509 0.19761635 0.13323985 0.1492623 0.009539113 -0.25479406 0.15123606 -0.02938996 0.017996771 0.092560224 -0.2497241 0.057636973 0.076124184 0.082704015 0.051850513 0.03009621 -0.12808205 -0.05277753 0.06823031 -0.24514984 -0.104834706 -0.08467444 0.050998617 0.018889211 0.030504497 -0.045894388 -0.122582145 -0.010791814 0.07927386 0.08385766 -0.008443106 -0.099178456 -0.103317745 0.08769351 -0.0026124024 -0.07679204 0.0022097602 0.04431893 0.10690222 -0.14936465 -0.04993787 0.038888343 0.055302694 0.292166 0.05065272 0.23259854 0.14184877
NXTG -0.08665754 0.092784904 0.02877925 -0.13930094 0.123447806 0.08425871 -0.14341985 0.051594004 -0.0835661 -0.012386378 -0.055113796 -0.10293582 -0.07624779 0.026573958 -0.06236661 0.20505267 0.041526843 -0.116255 -0.33390385 0.019854223 -0.007897102 0.0912196 -0.2533115 0.061548505 0.0885442 -0.06339328 -0.14405619 0.15067306 0.17279206 -0.041328516 0.035793368 0.12161038 -0.09025561 -0.0073017073 -0.24545573 0.0018004301 0.0069128587 0.12760559 -0.20247771 -0.20452255 0.011775759 0.013271249 -0.002139883 0.01655618 0.13417 -0.1175692 0.10114202 0.22059341 0.044978376 -0.1599064 -0.028387232 -0.20494924 0.17133988 -0.057577096 0.08958426 -0.080522805 0.040165022 -0.044230763 -0.17508328 0.11952176 0.017879138 -0.011174303 0.08779773 -0.009771212 0.0069597517 0.09682848 -0.09416842 -0.083857045 0.04247469 0.083168 -0.05120556 0.10972309 -0.1254871 -0.010069547 0.15320468 -0.07341589 -0.014110502 0.041062746 -0.0016834458 -0.051552378 0.09182794 0.013218523 0.04859812 0.12723902 0.020162856 0.0027162961 0.08033142 -0.079080045 0.0248775 0.024083119 0.04273044 0.052077517 -0.13315961 -0.1442731 0.25025272 0.19026498 0.22823678 0.053316988 -0.02176153 0.05776536
